/* Copyright 2018 Canaan Inc.
 *
 * Licensed under the Apache License, Version 2.0 (the "License");
 * you may not use this file except in compliance with the License.
 * You may obtain a copy of the License at
 *
 *     http://www.apache.org/licenses/LICENSE-2.0
 *
 * Unless required by applicable law or agreed to in writing, software
 * distributed under the License is distributed on an "AS IS" BASIS,
 * WITHOUT WARRANTIES OR CONDITIONS OF ANY KIND, either express or implied.
 * See the License for the specific language governing permissions and
 * limitations under the License.
 */

#include <stdlib.h>
#include <math.h>
#include "key_point.h"

// 64x128
static const float key_point_fc_1_w[] ={
    0.07699552f, 0.122422315f, -0.24020718f, 0.0524498f, 0.25608224f, 0.1231027f, -0.015539356f, -0.0582908f, -0.06838728f, 0.18018034f, -0.10231962f, -0.041622467f, -0.15446115f, -0.101237915f, -0.105062455f, 0.09588476f, 0.2815472f, -0.0334811f, -0.39399675f, 0.23934028f, 0.15829968f, 0.11854504f, -0.1440899f, 0.1118722f, 0.09571979f, -0.087245345f, -0.037842553f, -0.20636953f, 0.08249469f, -0.51552695f, 0.07393276f, -0.015240014f, -0.15701857f, 0.00055588724f, 0.12800238f, 0.06500255f, 0.023471223f, -0.098691426f, -0.01667687f, -0.044131696f, -0.033473752f, 0.2392079f, 0.21044771f, -0.01735861f, 0.10175696f, 0.015696978f, -0.019483957f, 0.2983836f, -0.11477337f, 0.24739376f, -0.061535235f, 0.39731893f, -0.14294472f, -0.057225093f, -0.136937f, 0.13179196f, 0.07964027f, -0.27310905f, -0.015504954f, 0.12283894f, 0.24186961f, -0.26767322f, 0.023842178f, -0.0053248256f, 0.09652466f, -0.5264454f, 0.036402546f, -0.17134395f, -0.04537604f, 0.033583596f, -0.066112734f, 0.07472204f, -0.33197227f, 0.0735111f, -0.031100629f, 0.0043190266f, -0.106147744f, 0.06640585f, 0.20565422f, 0.082679294f, -0.15278773f, 0.07234931f, 0.20359975f, 0.13704541f, -0.14677098f, 0.24872692f, 0.041489698f, -0.10901799f, -0.021256594f, -0.42641848f, 0.023158725f, -0.050133888f, -0.061347473f, 0.007773153f, 0.016274525f, 0.036548276f, 0.21533436f, 0.36941805f, 0.15242295f, 0.17504936f, 0.3067449f, 0.24691823f, 0.22741091f, 0.0019082092f, 0.00039644327f, -0.03067431f, -0.17713495f, -0.33108115f, 0.07985381f, 0.04024525f, -0.16614269f, -0.19157456f, 0.4281145f, -0.079535425f, -0.3953565f, 0.09837052f, -0.07795867f, -0.045474906f, 0.02216078f, -0.04540457f, -0.033537887f, 0.099019185f, -0.16296361f, 0.005586583f, -0.25683582f, 0.03657447f, 0.12268971f, -0.12816629f, -0.005735163f, 0.12423461f, -0.0066505726f, -0.39905983f, 0.08316617f, 0.14421037f, 0.050357442f, -0.020839255f, 0.18151481f, 0.13197334f, -0.117651284f, -0.0012979388f, 0.1937054f, -0.0436476f, -0.20398873f, 0.09282092f, 0.03698792f, 0.038128495f, -0.10598803f, -0.40715003f, -0.09192862f, -0.2601714f, -0.006769204f, -0.042294376f, -0.09682314f, 0.17581972f, 0.24015321f, 0.002639736f, 0.17188947f, 0.0637776f, 0.07552437f, -0.44605517f, 0.05138554f, -0.07302127f, -0.11448678f, -0.1117072f, -0.16807902f, -0.021871114f, -0.18610497f, -0.0732797f, 0.17256986f, -0.07986893f, -0.06452283f, -0.065583125f, -0.0027538803f, 0.08542687f, 0.26466537f, -0.12190689f, -0.26729003f, -0.25523978f, 0.12630078f, 0.0811426f, -0.038903933f, -0.0046662716f, 0.15596022f, 0.12169541f, 0.32457447f, 0.22741692f, -0.20071353f, -0.23557746f, 0.16353779f, -0.07775176f, 0.050184842f, 0.05765013f, 0.023495616f, 0.11356687f, 0.14333071f, 0.035685994f, -0.19401062f, -0.13334447f, -0.046396565f, -0.19325027f, 0.07834571f, -0.09276602f, -0.116659276f, -0.27917203f, 0.024904344f, -0.04019051f, 0.17741685f, -0.19886476f, -0.26666743f, -0.31237167f, -6.330727e-05f, 0.012538414f, 0.22809544f, 0.07613722f, 0.010676715f, 0.031996913f, 0.22286806f, -0.17661609f, 0.00046483573f, 0.18993437f, -0.1312924f, 0.21447542f, -0.10101575f, -0.09282897f, 0.2047889f, 0.25902772f, 0.014717216f, -0.22194666f, 0.09665966f, -0.02301957f, -0.06117978f, 0.028535226f, 0.10954439f, 0.030603617f, 0.34583932f, -0.08056551f, -0.11850879f, -0.13760008f, -0.023087675f, 0.07648423f, -0.027810361f, -0.059936445f, 0.086436845f, -0.1550073f, 0.018973226f, 0.037293483f, 0.18426204f, 0.2139027f, 0.31316563f, -0.2201771f, -0.14647904f, -0.17702161f, 0.39806798f, 0.29625124f, 0.09291979f, 0.046910428f, -0.16530877f, 0.37598112f, 0.2546715f, 0.12300171f, 0.08309448f, -0.048013765f, 0.10636341f, -0.029978001f, 0.22780283f, -0.16305305f, -0.13810903f, 0.11645112f, 0.016003612f, -0.050030716f, -0.121592134f, 0.1953836f, 0.1843893f, -0.03493592f, 0.2704428f, -0.15539376f, 0.12000878f, -0.1892845f, -0.23842207f, -0.044365328f, -0.15234256f, 0.29038444f, -0.34948617f, -0.051033095f, 0.32271406f, 0.031173898f, 0.12553434f, 0.13045935f, 0.13048959f, -0.24902356f, -0.047981948f, -0.16390714f, 0.0019079042f, -0.010112981f, -0.17082012f, -0.06824564f, -0.18669221f, -0.19913119f, -0.061779235f, 0.15855739f, -0.06944269f, -0.075958766f, 0.033081304f, -0.2376026f, -0.10458015f, 0.08670049f, 0.17987825f, -0.14394425f, 0.18819156f, 0.023919504f, -0.3202483f, 0.10542736f, -0.16717264f, -0.112529516f, 0.019820528f, -0.099083975f, -0.18002288f, -0.013114151f, 0.1205692f, -0.14626466f, 0.05924807f, 0.0739977f, -0.044115815f, 0.064464346f, -0.0806966f, -0.056534212f, 0.10980859f, 0.044854905f, -0.06687186f, -0.21632946f, 0.24370834f, -0.15453161f, 0.006712542f, -0.0942215f, -0.06056454f, -0.0818935f, 0.08778236f, 0.036669843f, -0.04166704f, 0.008575366f, 0.17606327f, 0.085183166f, 0.35644767f, 0.14507376f, -0.077218786f, -0.07568422f, 0.15054712f, 0.10141483f, -0.02962017f, -0.008300154f, -0.2952292f, -0.11957705f, 0.008285279f, -0.059405997f, -0.032250486f, -0.15658228f, -0.37012932f, 0.027495619f, 0.10500266f, -0.2573941f, -0.036729638f, 0.21065947f, 0.008716546f, -0.017000295f, -0.18198851f, -0.24927565f, 0.08221375f, -0.00080476253f, 0.040610433f, 0.17955849f, -0.058429614f, -0.13813493f, 0.08563861f, -0.0976471f, 0.06916131f, -0.31771258f, 0.0020376467f, 0.0120029785f, 0.039418098f, 0.079834536f, 0.081927665f, 0.09726729f, -0.007330127f, -0.01077159f, -0.1892645f, -0.013238894f, -0.15915665f, 0.23661886f, 0.07370473f, -0.15318176f, -0.31156301f, 0.057545897f, 0.039613154f, 0.077646606f, 0.09250904f, 0.06563723f, 0.24777491f, 0.43090528f, 0.16552353f, 0.10314734f, 0.13032936f, -0.0586249f, 0.056200914f, -0.05268061f, -0.25538418f, -0.22005966f, -0.032331184f, 0.030031817f, -0.1898215f, -0.053341545f, -0.05450598f, 0.0922965f, 0.29809958f, -0.19428313f, -0.115308665f, -0.074610636f, -0.24247836f, 0.08599956f, 0.064653896f, 0.086182624f, -0.09466515f, 0.21235812f, -0.21320175f, 1.0940557f, 0.10992386f, -0.07492009f, -0.11416356f, 0.058615986f, 0.14501788f, 0.4536854f, -0.33285162f, 0.06493587f, -0.060576055f, -0.16647236f, 0.063348316f, 0.058080345f, 0.023184303f, -0.0129790995f, 0.05700139f, -0.017502744f, -0.07667928f, -0.037720315f, -0.10926677f, 0.05961218f, 0.03215595f, -0.07863508f, 0.11989385f, 0.19968148f, 0.050737362f, 0.11415756f, -0.17710188f, -0.07198123f, 0.122759335f, 0.2258466f, -0.12407446f, 0.040776722f, -0.08343041f, -0.19083548f, -0.16994944f, -0.06887528f, 0.17304547f, -0.19140409f, -0.020339604f, 0.18929343f, -0.03466095f, 0.27915478f, -0.03411518f, -0.12890774f, -0.2286893f, -0.057115704f, -0.14395112f, -0.07073608f, 0.031354897f, 0.0065053655f, 0.14005712f, -0.20391895f, 0.2254961f, -0.080328956f, 0.12642935f, 0.036655005f, -0.036813214f, -0.16219868f, 0.12157735f, -0.031411003f, 0.08457526f, 0.25203207f, -0.10003479f, -0.17385569f, 0.09073467f, -0.020006837f, -0.041633513f, -0.17835876f, 0.13992554f, 0.08518911f, -0.0032221032f, 0.1054117f, -0.14571421f, -0.2087099f, -0.15477642f, 0.14802453f, -0.0011377664f, 0.0883539f, 0.056282606f, 0.054476667f, -0.08404693f, -0.0807956f, 0.22437985f, 0.043362055f, 0.041707695f, -0.09657866f, 0.044808332f, 0.19336575f, 0.16689152f, 0.19415808f, -0.11709512f, 0.05090831f, 0.17704268f, 0.051551238f, -0.019237485f, -0.10258497f, -0.07752505f, 0.17002864f, 0.14800073f, -0.021987153f, -0.091596134f, -0.027227392f, 0.17146946f, -0.04740877f, 0.22002326f, -0.031055275f, -0.21175213f, 0.0864005f, -0.05742649f, 0.018794857f, -0.1817675f, -0.14101988f, 0.011640236f, -0.054838225f, 0.20563307f, 0.075042285f, -0.18544419f, -0.48879445f, 0.035700127f, -0.062332857f, -0.100504994f, 0.2652906f, 0.15883814f, -0.22676288f, -0.046763077f, -0.15002722f, 0.16895111f, -0.004915428f, 0.14682432f, -0.022991799f, 0.042990316f, -0.10448038f, 0.054548997f, -0.016273577f, -0.060402144f, 0.39368096f, -0.17725217f, 0.279709f, -0.0186734f, 0.30661798f, -0.1039992f, -0.3075812f, 0.09439949f, 0.02903295f, 0.32503712f, -0.27106434f, -0.11281512f, 0.035949294f, 0.18247198f, -0.323127f, 0.10076526f, 0.09280245f, 0.20455144f, -0.008278615f, -0.047145046f, -0.13084602f, -0.0106095355f, 0.1661175f, 0.07274025f, -0.058046848f, -0.08165756f, 0.1317786f, -0.25623286f, -0.06647419f, -0.049457077f, 0.1158701f, -0.32571417f, 0.21107723f, -0.15067749f, 0.2090406f, -0.078778625f, 0.0300502f, -0.10746309f, 0.18868026f, -0.19582222f, -0.18098928f, 0.091504514f, -0.17566857f, 0.06135219f, -0.32272616f, -0.15298605f, -0.09487123f, 0.25028977f, 0.08073212f, 0.079741605f, 0.13014443f, 0.09526379f, -0.155005f, 0.5722052f, 0.17653865f, 0.15417823f, 0.04815926f, -0.19439659f, -0.23777735f, -0.2766693f, -0.06907801f, 0.255303f, -0.111504726f, 0.19215076f, -0.052624557f, -0.0007451408f, 0.19127129f, -0.15223916f, 0.189351f, -0.16729744f, -0.08647858f, 0.14748669f, 0.17516026f, 0.22869788f, -0.09579047f, 0.033171333f, -0.045804046f, 0.2695898f, -0.11427318f, 0.090103485f, 0.10507716f, 0.069994606f, -0.13177693f, -0.08798575f, 0.20217915f, -0.14327264f, -0.12257286f, 0.04154486f, -0.1205098f, 0.04508789f, 0.056405637f, -0.05472533f, -0.1457486f, -0.120242484f, 0.0050805244f, -0.18159246f, 0.08803315f, -0.21026441f, -0.108769774f, -0.08126219f, 0.1713864f, 0.17401448f, 0.2583829f, 0.108951986f, 0.24503425f, -0.1600145f, -0.12472113f, 0.15223718f, 0.04624404f, -0.23183943f, -0.15165697f, -0.30908594f, 0.09876768f, -0.08807037f, -0.058093917f, -0.16159314f, 0.17161103f, 0.09915423f, -0.1450991f, 0.15221389f, -0.016592257f, -0.056986563f, 0.12127803f, 0.26549423f, -0.08621683f, -0.09552026f, 0.032336794f, 0.15482004f, 0.31699112f, -0.13962638f, 0.1675273f, 0.105634674f, 0.101170644f, -0.13002776f, -0.013036051f, -0.018896056f, 0.07126389f, 0.04833202f, -0.09117625f, 0.051701378f, -0.17474863f, 0.3539154f, 0.15438229f, -0.036684837f, -0.07193559f, 0.16397561f, -0.17623812f, 0.106898144f, -0.15539946f, -0.105246365f, -0.18455514f, 0.17410307f, 0.035516966f, -0.04397236f, 0.20835787f, 0.19215836f, 0.1999634f, -0.28180024f, 0.18853845f, -0.16755077f, 0.14391126f, -0.0618193f, -0.051387217f, 0.021878572f, 0.30521226f, 0.1999145f, 0.05490879f, -0.14069614f, 0.1831107f, -0.007149553f, 0.042953175f, -0.11346372f, 0.017679816f, -0.113554284f, 0.17362258f, -0.15235873f, -0.116298646f, -0.14765568f, 0.14143364f, 0.112036854f, 0.31082317f, 0.117819935f, -0.021683177f, 0.34745008f, 0.08303154f, -0.32116875f, -0.016314588f, 0.00835685f, 0.06444743f, -0.16738015f, 0.11873806f, -0.10463401f, -0.121745005f, 0.12426975f, 0.025469381f, 0.037766356f, 0.061458234f, -0.28791717f, 0.12739979f, -0.1581565f, -0.037511867f, -0.04848514f, 0.005090002f, -0.035022292f, -0.027615929f, -0.15394355f, -0.14133535f, 0.086193554f, -0.07623261f, 0.021603277f, -0.09273964f, -0.0038410383f, -0.04433898f, -0.18509924f, 0.112143636f, -0.06043332f, -0.18077022f, 0.016364235f, -0.054726094f, -0.18963522f, 0.027155764f, 0.12715876f, 0.09072639f, -0.1278966f, -0.07561025f, -0.10725471f, 0.25477242f, 0.28003088f, -0.12487499f, 0.01549079f, -0.24404947f, 0.02746107f, -0.0974923f, 0.054315623f, -0.2596193f, -0.003215217f, -0.06835243f, -0.17492928f, 0.2833723f, -0.03598534f, -0.020586131f, 0.048283476f, 0.18741976f, 0.15058303f, 0.09219053f, 0.020526348f, 0.2542217f, 0.060219433f, -0.006835281f, -0.10709486f, 0.058386102f, -0.025644058f, 0.1116786f, -0.07803832f, -0.021832487f, -0.20179367f, 0.015664281f, 0.09889296f, -0.09838574f, 0.088045575f, -0.20340009f, 0.1452955f, 0.13451687f, -0.12717809f, 0.07406585f, -0.22774172f, -0.022538025f, -0.08921177f, 0.09264849f, 0.038762257f, 0.34273958f, 0.07164061f, -0.040298898f, -0.1412903f, -0.012972052f, 0.019781347f, 0.09433793f, -0.12223792f, 0.09354837f, -0.179233f, 0.02107923f, -0.17972632f, -0.15445475f, -0.105302535f, -0.13099296f, 0.31741107f, -0.17656581f, 0.2573834f, 0.03481798f, -0.13409376f, 0.028061066f, 0.0936092f, -0.23933095f, -0.07292978f, -0.027668335f, -0.0037863052f, -0.1592789f, 0.09677565f, 0.05085709f, 0.12625311f, 0.053333197f, 0.12597069f, 0.1247429f, 0.17750488f, 0.21141382f, 0.24960983f, -0.16076444f, -0.11685088f, -0.23709235f, 0.037388235f, 0.22734366f, -0.14366598f, -0.08898821f, 0.28411764f, -0.11269131f, -0.11890494f, -0.05873827f, -0.102537856f, 0.06875687f, 0.025687966f, 0.11999767f, 0.11095406f, -0.1351738f, -0.16004013f, -0.18795435f, 0.062254664f, -0.055821057f, 0.2017833f, 0.11751622f, -0.1010612f, -0.20433015f, 0.2309856f, -0.026833633f, 0.15405595f, -0.076388516f, 0.055752207f, 0.14030561f, 0.0334105f, -0.17623934f, -0.08096098f, -0.15270549f, 0.016141351f, 0.14640644f, -0.012347365f, 0.086325064f, -0.009957208f, 0.040182605f, -0.14681286f, -0.05443188f, 0.17333636f, 0.13023923f, -0.25413767f, 0.14882265f, -0.102256045f, 0.22981355f, -0.033474945f, -0.21052761f, -0.15571737f, -0.060334772f, -0.046159223f, -0.19531523f, -0.010520424f, -0.0146350125f, -0.27916217f, -0.03596489f, 0.030256253f, 0.19490975f, 0.17307274f, 0.15809315f, -0.06618593f, -0.014397639f, -0.07614836f, 0.21723936f, -0.019771632f, 0.2643516f, 0.111164406f, 0.008123514f, -0.21082324f, -0.19406018f, -0.31047916f, 0.15669543f, 0.20235229f, 0.06841101f, -0.042952992f, -0.28710207f, -0.001734861f, 0.082049526f, 0.010760252f, -0.13043015f, 0.117507026f, 0.26513797f, -0.0057776025f, -0.09672728f, -0.03331785f, 0.13741012f, 0.016129546f, 0.05223358f, -0.25844344f, 0.20324646f, 0.16492723f, -0.1025175f, 0.007819072f, -0.022795128f, 0.0793362f, 0.044821236f, -0.06847911f, 0.14913744f, -0.21803759f, 0.11902505f, 0.2109428f, 0.15305297f, -0.17001715f, 0.06510429f, 0.22684021f, 0.2973295f, -0.03276906f, -0.04995035f, 0.03158674f, 0.110922694f, 0.04387325f, -0.010493345f, -0.17650981f, 0.03786907f, -0.23329277f, -0.2523508f, 0.101036586f, 0.16091113f, -0.067499064f, -0.14375871f, 0.15882106f, -0.12814173f, 0.013622244f, -0.013108906f, -0.11929776f, 0.14985615f, -0.118326105f, 0.072519675f, 0.11082231f, 0.29237187f, -0.09267483f, 0.62487364f, 0.07176668f, -0.14012423f, 0.06926088f, -0.048010815f, -0.019679517f, 0.1525881f, -0.19215198f, 0.07555933f, -0.11343706f, -0.24580571f, -0.12417253f, 0.057870004f, 0.03285441f, -0.17893486f, -0.02194228f, 0.18437828f, 0.22820352f, -0.08403268f, -0.28755778f, -0.01681844f, 0.116324924f, -0.055824067f, 0.117215395f, -0.016811348f, 0.26828253f, -0.1430447f, 0.08848241f, -0.046933874f, 0.08830055f, -0.17332783f, 0.060080357f, -0.04013307f, 0.073085606f, 0.20017825f, 0.12402338f, 0.029027563f, -0.11296743f, 0.068295695f, -0.19464524f, 0.10955698f, -0.06957362f, 0.014755605f, -0.05309036f, 0.18298148f, 0.16011314f, 0.21236168f, 0.033188865f, 0.16692783f, -0.04182343f, 0.12555218f, -0.17140728f, 0.12093797f, -0.24165963f, -0.1078868f, -0.14493892f, -0.2799351f, -0.05078486f, 0.32155648f, -0.13335475f, 0.14186454f, 0.12486106f, -0.077561215f, 0.2501183f, 0.21679467f, -0.32647547f, 0.19915062f, -0.16599748f, -0.112723514f, -0.05377997f, 0.014444933f, -0.08520952f, -0.10762669f, -0.110200725f, 0.13766868f, 0.08678903f, -0.07258739f, -0.15326153f, 0.17518617f, 0.0071598273f, -0.18138309f, -0.1390192f, 0.18750131f, -0.021908097f, -0.026880402f, -0.19467501f, -0.10383544f, -0.1377705f, -0.17912097f, -0.011001696f, -0.0524177f, -0.14290342f, 0.2880257f, -0.29967365f, 0.07378388f, -0.09514262f, -0.22013314f, -0.06400815f, 0.07452352f, -0.13234094f, -0.15764649f, -0.014419441f, 0.09818146f, -0.055549573f, 0.065032765f, -0.13258015f, -0.3432007f, -0.002899436f, 0.23046948f, 0.023574345f, 0.011327028f, 0.12862761f, 0.11166785f, -0.0029956654f, -0.13893825f, 0.06430033f, -0.08981627f, 0.02879893f, 0.1154398f, -0.10735587f, -0.039501667f, -0.19268912f, 0.23209053f, -0.16230893f, 0.06340105f, -0.09342269f, -0.11711428f, -0.07107365f, -0.0339359f, 0.1670705f, 0.28062373f, 0.40930712f, 0.010874858f, 0.08100726f, 0.01875911f, 0.038789365f, 0.29867062f, -0.163645f, 0.045641936f, 0.13192843f, -0.005078496f, -0.04814741f, -0.16710374f, 0.110744216f, 0.16174659f, 0.1319078f, -0.21666975f, -0.053051952f, -0.26537433f, 0.2780249f, 0.0535132f, 0.020720547f, 0.18208201f, 0.09269225f, -0.019567631f, -0.10793439f, -0.29003853f, 0.03457988f, 0.1133658f, 0.032332018f, -0.075420365f, 0.031961642f, 0.08859472f, 0.027330315f, -0.064994745f, 0.04072468f, -0.00383979f, -0.17072111f, -0.09663522f, -0.03691734f, -0.008241263f, -0.13600154f, -0.43677825f, 0.016865352f, -0.23411782f, 0.20966049f, -0.054252975f, -0.02755907f, -0.099504516f, 0.22404905f, -0.016547859f, -0.037314482f, 0.14032745f, 0.051681913f, -0.3318995f, -0.15288617f, 0.13242292f, -0.047972847f, -0.010092901f, -0.04898957f, -0.18451354f, -0.11493673f, 0.03378199f, 0.16837001f, -0.12136443f, 0.10338485f, 0.072049946f, 0.10993263f, 0.009106476f, 0.29618734f, 0.0064378954f, -0.3196766f, -0.100627854f, -0.14268641f, 0.007881639f, -0.06086213f, 0.12912516f, 0.15285532f, 0.047563687f, 0.25637683f, 0.09384317f, -0.0061304215f, -0.08843078f, 0.2526458f, 0.16788915f, 0.045138907f, 0.05797296f, -0.2009028f, 0.011607862f, 0.07232403f, 0.29638678f, -0.2841859f, 0.0134124f, -0.09934485f, -0.08448362f, -0.22795995f, 0.016632695f, -0.1116356f, -0.029847793f, -0.03212083f, 0.11563892f, -0.15556009f, 0.22662438f, -0.2551767f, -0.10579893f, -0.061472844f, 0.13199387f, 0.11988639f, -0.0386996f, -0.022780037f, 0.12958482f, -0.22873914f, -0.116803326f, 0.053578094f, -0.20524544f, -0.1334851f, -0.05427182f, -0.19272418f, 0.08579901f, -0.031835344f, 0.17021018f, -0.25171155f, -0.04898197f, 0.1627512f, 0.0327937f, 0.04014091f, 0.013208694f, -0.05742515f, 0.16751088f, 0.3821514f, 0.047093946f, -0.04272365f, -0.1252531f, 0.18953529f, 0.13630608f, -0.118332654f, 0.181122f, -0.13298905f, 0.05568065f, 0.13572526f, -0.061046217f, -0.03244996f, 0.17821823f, 0.10298705f, 0.09062654f, -0.030277122f, -0.23816553f, 0.19984296f, 0.13876426f, 0.0062630665f, -0.012699683f, -0.25464413f, 0.06854798f, -0.26574406f, 0.012511222f, -0.09893827f, 0.06657128f, 0.09073717f, -0.1033157f, -0.06507225f, -0.11540182f, -0.0072446023f, -0.057522573f, 0.124939956f, -0.16132617f, 0.03482025f, 0.15682887f, -0.13819525f, -0.040296696f, -0.12500492f, -0.07133014f, -0.13019344f, 0.07626455f, 0.12682883f, -0.1724776f, 0.108431876f, -0.09439027f, 0.054351002f, -0.22717449f, 0.30244833f, 0.10272699f, -0.050898444f, -0.10245003f, 0.05361507f, -0.14259025f, -0.08323074f, -0.11465635f, -0.037359204f, 0.16910483f, -0.20903087f, -0.013433047f, 0.16801277f, -0.17652594f, 0.1954431f, -0.21927485f, 0.2881323f, 0.08352881f, 0.1500873f, 0.06695341f, -0.2133848f, 0.010794702f, -0.2151719f, 0.043625347f, 0.25278553f, -0.17836975f, 0.26338747f, -0.029407766f, 0.33813357f, -0.14390418f, 0.023965249f, 0.0021178415f, 0.27666304f, -0.064851f, -0.026872415f, 0.0625742f, 0.12311672f, 0.08428436f, -0.3290855f, -0.30234286f, -0.050323498f, -0.004226755f, -0.19699164f, -0.384305f, 0.10855218f, 0.15921883f, -0.0051606027f, -0.08341853f, -0.019805385f, 0.38057572f, -0.1087761f, 0.119348556f, -0.084856525f, -0.06931206f, 0.14633778f, -0.18791455f, -0.007574609f, -0.029576821f, 0.034437038f, -0.22345065f, 0.05364954f, -0.16150767f, 0.13741222f, 0.1000554f, -0.085338965f, -0.034446765f, 0.12112698f, -0.28828615f, -0.10590777f, 0.31226182f, 0.053304117f, -0.094375975f, 0.03690632f, 0.02722714f, 0.1260034f, 0.3745822f, 0.22622249f, -0.1346054f, 0.041221317f, -0.01313183f, 0.11286814f, 0.025816975f, -0.1740394f, -0.0020622218f, -0.15075366f, -0.19467247f, -0.046981663f, 0.13715641f, 0.053205613f, -0.01999558f, 0.29036978f, 0.2053611f, 0.4121989f, 0.05212749f, -0.5908579f, -0.08299574f, 0.16975075f, -0.039693173f, 0.30973494f, -0.1677575f, 0.176748f, 0.009662226f, 0.27504715f, 0.08223303f, -0.040024735f, 0.07305494f, 0.15226534f, 0.10337993f, -0.20149833f, -0.08887715f, -0.07571674f, -0.063209414f, -0.050240718f, -0.40626228f, -0.22930996f, 0.0018569236f, 0.06434468f, 0.011816082f, 0.0045421836f, -0.072159275f, 0.08542696f, 0.3134729f, -0.03115204f, -0.0035207602f, 0.26018667f, -0.12152367f, 0.19125295f, -0.20677902f, -0.07602731f, -0.054246224f, 0.003869406f, 0.10684101f, 0.23927271f, 0.04288436f, -0.03241803f, -0.2458569f, 0.30413997f, -0.07204872f, 0.20661058f, -1.0590402f, -0.15064043f, 0.058774024f, -0.2716406f, 0.045365646f, -0.0018384884f, -0.46961585f, 0.32678914f, -0.032775715f, 0.04241443f, 0.20657219f, -0.11237866f, -0.079399146f, -0.27802855f, 0.020148203f, -0.08833268f, 0.15357587f, 0.12011546f, 0.07719475f, 0.08867835f, 0.020533944f, -0.040720113f, -0.060297687f, -0.0027232238f, -0.013896688f, 0.10283176f, 0.19578722f, -0.06475556f, 0.14599875f, -0.1583893f, 0.084799476f, -0.059855055f, -0.036246635f, -0.13419442f, 0.026537418f, -0.0071523995f, -0.052254852f, -0.032604422f, 0.06662383f, -0.11570938f, 0.037723683f, -0.11644217f, -0.058879446f, -0.31477693f, -0.003293527f, -0.031399284f, 0.09575297f, 0.09885415f, 0.115417816f, 0.049898446f, -0.25556758f, 0.257176f, -0.097548276f, -0.058983292f, -0.008867759f, -0.11094332f, 0.04993275f, 0.037297368f, 0.22127065f, -0.10192491f, -0.15764807f, -0.022816164f, -0.1131502f, -0.0412091f, -0.03127263f, 0.18355846f, 0.21892735f, 0.39939967f, -0.12133023f, -0.029767143f, -0.104244635f, 0.14214301f, 0.31761634f, -0.22575325f, -0.026792891f, -0.13903083f, 0.16019179f, 0.052338768f, -0.20913942f, 0.20365119f, 0.034976766f, 0.2972432f, -0.29817274f, -0.013087416f, -0.22542311f, 0.44749737f, -0.09741674f, -0.07955283f, 0.20723604f, -0.05735903f, -0.18479745f, -0.26599243f, 0.34716785f, -0.05497844f, 0.07033868f, -0.053867783f, 0.109521925f, 0.015746515f, -0.052411832f, 0.09743685f, 0.357265f, 0.16698824f, 0.20003018f, -0.046616975f, 0.23008311f, 0.25324517f, 0.244373f, -0.14193283f, -0.024596533f, -0.12703931f, -0.2520717f, 0.20022447f, -0.02111656f, -0.4591031f, -0.00853526f, -0.22083114f, -0.20155148f, 0.19902292f, -0.13664776f, -0.110959314f, 0.4331004f, -0.4948069f, -0.074948534f, -0.11598688f, 0.45815912f, -0.28012136f, 0.14283562f, -0.16995354f, 0.08896813f, -0.22457366f, 0.18573791f, 0.47555304f, -0.16879717f, 0.3586008f, 0.28196746f, -0.13149415f, -0.06926933f, 0.075859256f, 0.016801782f, -0.029531958f, 0.33896458f, -0.0609632f, -0.17045084f, -0.12349615f, -0.5041344f, -0.26517972f, 0.17230336f, 0.29229516f, 0.0076904236f, -0.27375245f, -0.1004029f, -0.13524932f, 0.16734488f, 0.041345257f, 0.12900403f, -0.013706222f, 0.23468812f, -0.13037935f, 0.0740649f, 0.1742663f, -0.25156513f, 0.006371334f, -0.09233004f, 0.00880529f, -0.2100686f, 0.045230657f, -0.03345281f, -0.13469549f, 0.116502576f, -0.11624581f, 0.0006959617f, -0.31547526f, -0.0070059844f, 0.23746435f, 0.09651955f, -0.23049311f, 0.11986147f, -0.051551115f, -0.29713964f, -0.13770147f, -0.24037887f, -0.0941856f, 0.06602678f, -0.15998113f, 0.023995709f, 0.16596988f, 0.30767426f, 0.041926958f, 0.03178321f, 0.16164188f, -0.21991299f, 0.082517974f, -0.07078089f, -0.14054811f, 0.23945627f, 0.22839883f, -0.01356985f, -0.027039997f, -0.074699186f, 0.10055681f, 0.33813947f, -0.29609627f, 0.18754703f, -0.20054239f, -0.024173513f, 0.031021984f, -0.19711377f, -0.09950105f, 0.48311839f, 0.0041518253f, -0.218375f, -0.048813783f, 0.030544791f, 0.35474265f, 0.035502084f, 0.10172835f, 0.15980883f, 0.052488893f, 0.16860406f, 0.080111295f, 0.17330466f, 0.12672225f, -0.087736666f, 0.20714231f, -0.086360425f, 0.10446849f, -0.09795051f, -0.11703444f, -0.10506288f, -0.2226276f, 0.12866656f, -0.13336548f, 0.1239464f, 0.033373825f, -0.15936537f, 0.05154812f, 0.23161839f, 0.1259785f, 0.17785282f, -0.10855111f, 0.18818381f, -0.15754366f, -0.072268926f, -0.19298552f, -0.12919718f, -0.1437668f, -0.09717187f, -0.03697639f, 0.24814564f, 0.070470944f, -0.0056029772f, 0.20351624f, -0.11155671f, 0.20847581f, -0.20452371f, 0.1900843f, 0.0077334153f, -0.22517519f, 0.1204092f, 0.2414414f, 0.0073544113f, -0.20188932f, 0.0066002365f, -0.22733018f, 0.20402056f, -0.07359332f, 0.30680037f, 0.19399512f, 0.06480572f, -0.09931632f, -0.07325644f, -0.24215443f, 0.1410375f, 0.07566291f, -0.15293567f, 0.042128496f, -0.08676096f, -0.025878005f, -0.111991785f, 0.14195281f, 0.08489239f, 0.15964924f, 0.1205121f, 0.1307555f, 0.12544689f, 0.04431717f, -0.17315623f, 0.087264195f, 0.06342937f, 0.19828789f, 0.059196167f, -0.06309908f, 0.1258182f, -0.10803998f, 0.20509954f, -0.11369744f, -0.033357974f, 0.13731016f, 0.05332397f, -0.08126692f, 0.19143991f, 0.086307034f, 0.21870005f, -0.18771781f, -0.007117113f, -0.11258181f, 0.11298923f, 0.03361045f, 0.1837657f, -0.19122839f, -0.038168192f, -0.0011348396f, -0.01693708f, -0.12150482f, 0.056299422f, 0.008188132f, 0.2447546f, -0.042445138f, -0.08500408f, 0.26959768f, 0.12333474f, -0.27776945f, -0.006568294f, 0.106152475f, 0.0404053f, -0.044294067f, -0.07005718f, 0.021877104f, -0.045115557f, -0.12689254f, 0.22434491f, -0.01724809f, -0.10488671f, -0.108488455f, 0.0671391f, -0.20143466f, 0.004346772f, 0.012482483f, 0.042444155f, -0.21900518f, -0.0025609504f, -0.1140566f, -0.13394748f, 0.0700245f, 0.011962489f, 0.08506195f, -0.052277997f, 0.06281433f, -0.31635496f, -0.06688106f, -0.23716585f, 0.20850232f, -0.11947649f, 0.061509408f, 0.2504488f, -0.073452756f, 0.24756296f, -0.17655951f, 0.17517817f, -0.11029104f, 0.014247981f, -0.0040007527f, 0.09046686f, 0.18163492f, 0.104198486f, -0.03248904f, 0.15361264f, -0.008561629f, 0.28070882f, -0.13903072f, -0.015490468f, -0.049587674f, 0.05349082f, -0.06957408f, 0.15257967f, -0.10975436f, -0.16845743f, 0.14017408f, 0.24789315f, -0.11368522f, 0.17854819f, 0.1520082f, -0.19552979f, 0.31135106f, 0.1991374f, -0.40719056f, -0.07172308f, -0.14276402f, 0.059599396f, -0.07891586f, -0.12641235f, -0.067772225f, -0.1639058f, 0.11276073f, -0.0077249687f, 0.13472636f, -0.052996874f, -0.31015843f, 0.31694376f, -0.22649747f, 0.027658727f, -0.03403287f, 0.29753253f, -0.25960353f, 0.026600769f, -0.26310676f, 0.051013958f, -0.07492256f, -0.26920816f, -0.05562583f, -0.12738311f, -0.13090307f, -0.3592752f, -0.11531557f, 0.0831234f, -0.120807424f, 0.09922801f, 0.013038218f, 0.18478593f, -0.05236839f, 0.1743138f, 0.051883403f, -0.022737525f, -0.3722952f, 0.31642434f, 0.07055215f, 0.22338274f, 0.16772692f, -0.2263859f, -0.13852364f, -0.016411614f, -0.118231475f, 0.11028384f, -0.26892397f, 0.21283312f, -0.15262249f, -0.14612213f, 0.111628205f, 0.19853488f, 0.002181381f, 0.067841694f, -0.038458686f, -0.059568614f, 0.0052195224f, 0.20714584f, 0.229932f, 0.021094332f, 0.012898167f, -0.10444177f, -0.06276046f, -0.2802324f, -0.32799104f, -0.020054026f, 0.05659156f, 0.05120218f, 0.24334703f, -0.3182509f, -0.07241388f, -0.2117253f, 0.14459532f, 0.06960496f, -0.11330919f, 0.1613982f, -0.036509767f, -0.1407457f, 0.03970047f, 0.22707124f, -0.026487496f, -0.021616014f, -0.08821986f, 0.0315165f, 0.081857584f, -0.16651124f, -0.17388938f, -0.031552084f, 0.07367315f, -0.06985758f, -0.03929223f, 0.094589286f, -0.012249244f, 0.027428325f, 0.16463107f, -0.032064177f, 0.22349887f, 0.22565068f, 0.09000431f, 0.01727892f, 0.08002498f, -0.1701425f, 0.14808479f, 0.13071175f, -0.021894228f, 0.023158662f, -0.1782117f, -0.23391677f, 0.13695402f, 0.07121468f, -0.12316211f, 0.061374865f, -0.13744207f, 0.188121f, 0.21727417f, 0.19226372f, 0.0055118953f, 0.04743964f, 0.12831207f, -0.27176178f, 0.19070874f, 0.101219065f, -0.26381913f, 0.17503208f, -0.21444368f, 0.113152206f, -0.011118086f, -0.16142842f, -0.39373264f, 0.006964899f, -0.118946746f, 0.015358379f, -0.2863498f, -0.13703188f, 0.21901096f, -0.13386314f, 0.0360395f, -0.13411987f, 0.2591982f, 0.0024023193f, -0.31649637f, -0.16466725f, -0.31534413f, 0.10639767f, 0.028427914f, 0.3342591f, -0.3348893f, 0.12455871f, -0.29253742f, -0.0029720485f, -0.00571676f, -0.08317521f, 0.0990031f, -0.033967476f, -0.02406414f, -0.23078011f, -0.019434692f, 0.09293624f, -0.09837925f, -0.011612068f, 0.070779905f, 0.06332826f, 0.008444317f, 0.2058711f, -0.050023098f, -0.16658731f, 0.1545053f, 0.010182477f, 0.099594794f, 0.063396715f, 0.1951333f, 0.15845028f, 0.2823473f, 0.08777438f, -0.024206912f, -0.15689789f, 0.07745619f, 0.22280478f, -0.055650532f, 0.11288788f, -0.19642447f, -0.071959056f, 0.11894853f, 0.039570365f, -0.1365327f, 0.10570944f, -0.045990866f, -0.0030909444f, -0.028206324f, 0.15499687f, -0.22442561f, 0.09856955f, 0.14965746f, -0.017658386f, -0.18952654f, -0.1444406f, -0.05385421f, 0.016670303f, 0.1963128f, 0.10891742f, 0.123315744f, -0.021044556f, -0.23865625f, 0.075393f, 0.030749233f, -0.0903604f, -0.16159976f, -0.04141442f, -0.26474902f, 0.056177694f, 0.11722372f, 0.0561892f, -0.0520646f, -0.12168552f, 0.13515586f, -0.20251858f, -0.022112504f, 0.091334045f, -0.032083474f, -0.16105169f, -0.067213826f, -0.024765212f, -0.044447504f, 0.05046784f, -0.0096298205f, 0.11295918f, -0.11165129f, 0.20432828f, 0.006578725f, 0.0660536f, -0.009178082f, -0.022883004f, 0.121718384f, 0.45362467f, 0.21132158f, 0.26100352f, 0.1465062f, -0.05087862f, 0.04034686f, -0.08109111f, -0.11773636f, 0.020602815f, -0.20287381f, 0.063540086f, -0.20733884f, 0.07468195f, -0.050009754f, 0.22039123f, -0.08341689f, 0.28327218f, 0.20305952f, -0.04938619f, 0.21788922f, 0.05468176f, -0.28948137f, 0.33647388f, 0.06799988f, -0.10820517f, -0.13373815f, -0.080196925f, -0.21409085f, -0.10229332f, 0.2689621f, 0.13605589f, 0.07180871f, 0.049976178f, -0.07392403f, -0.045910474f, -0.061069958f, -0.0870677f, -0.2654056f, -0.14701231f, -0.10426384f, 0.19983564f, -0.25963295f, 0.01516441f, -0.008783381f, -0.027396858f, 0.1440635f, -0.10534161f, -0.09606573f, -0.054107927f, 0.23711272f, 0.016692512f, 0.1042609f, 0.13581839f, -0.008772632f, 0.15455253f, -0.20288192f, -0.09207037f, 0.06150726f, -0.04293591f, -0.17570135f, 0.30769518f, 0.058365475f, 0.11533179f, -0.11962424f, 0.036596037f, -0.067324184f, 0.050214157f, -0.34674343f, -0.20292117f, 0.016585857f, 0.021998115f, 0.05998299f, -0.12868948f, -0.065898955f, -0.24488929f, 0.14564186f, 0.08936582f, -0.115682155f, -0.02603768f, 0.06321265f, 0.105994895f, 0.1781971f, 0.04751632f, 0.23795469f, -0.07040563f, 0.03398196f, -0.18071184f, -0.14156647f, 0.06238736f, 0.13995723f, 0.024143444f, 0.068041325f, 0.031058952f, -0.19122137f, 0.09054179f, -0.067582116f, 0.39564785f, -0.06933413f, -0.013987353f, -0.1530329f, 0.11449443f, 0.009684118f, -0.1308573f, -0.07041299f, 0.15781444f, 0.14568268f, -0.23701258f, 0.0751733f, 0.13362202f, -0.01157053f, -0.035048056f, -0.05670982f, 0.34078714f, -0.23607874f, -0.03240781f, 0.114782535f, 0.08953391f, -0.062293265f, -0.12105807f, -0.2238098f, 0.034924712f, 0.16387591f, 0.15662679f, -0.047746576f, -0.029822536f, 0.030098198f, -0.42200354f, 0.019621762f, 0.06782407f, -0.06950474f, 0.06014777f, 0.28220102f, 0.19325483f, -0.18553172f, -0.0316592f, 0.089826465f, -0.062637165f, -0.11149006f, -0.03253613f, -0.19930378f, 0.0074030356f, -0.23603876f, -0.03633174f, -0.31017303f, 0.118555844f, 0.047146883f, -0.18412773f, -0.108415544f, 0.044234324f, 0.076785855f, 0.023223197f, 0.42171308f, -0.059515808f, 0.24940886f, -0.054404702f, 0.08475308f, 0.08317315f, -0.09993805f, 0.034142338f, -0.047076527f, 0.011873098f, -0.024710035f, -0.17689109f, 0.21133824f, -0.011248264f, -0.03550418f, 0.10970854f, 0.17626029f, -0.35914528f, 0.122814745f, 0.115588665f, 0.061406355f, 0.020669274f, 0.07527042f, -0.06817893f, -0.1626576f, 0.074306816f, -0.08437801f, 0.04636975f, -0.26611045f, -0.16834421f, 0.11254724f, 0.056516867f, -0.026038593f, -0.18316348f, 0.14390253f, 0.17002976f, -0.1816219f, 0.076190524f, 0.08614767f, 0.11283142f, 0.07973836f, 0.17899229f, -0.021109954f, 0.007453591f, -0.35019904f, -0.106181756f, 0.036963586f, -0.073910825f, 0.05872362f, -0.22692981f, 0.12902822f, -0.24564248f, 0.16015807f, -0.0720423f, 0.0435372f, -0.00922671f, -0.05456824f, 0.13901573f, 0.37730002f, 0.063301526f, -0.06278725f, 0.55402493f, 0.03275682f, -0.09682348f, -0.21561103f, -0.077359706f, 0.20851839f, 0.117397845f, 0.018670201f, -0.11063818f, 0.05478582f, 0.044793133f, 0.03128943f, 0.065233275f, 0.14066164f, 0.03978121f, -0.13025665f, 0.34545568f, 0.17616373f, -0.032440174f, -0.14251857f, 0.02103511f, -0.14585671f, 0.014953354f, 0.13629223f, -0.023962079f, -0.014317464f, -0.6882449f, -0.091151476f, 0.0026000605f, -0.16125752f, 0.030110104f, -0.1473109f, -0.009934809f, -0.11429511f, -0.13338503f, 0.15735638f, 0.1441854f, 0.12157255f, -0.04545883f, 0.2793022f, -0.05473475f, -0.119236134f, -0.062412817f, 0.07196675f, -0.090974644f, -0.31390193f, 0.20909758f, 0.026172157f, -0.19485752f, -0.013598383f, -0.17588294f, 0.20020448f, -0.06590742f, 0.1621397f, -0.023549251f, 0.083243266f, -0.085688464f, 0.095621206f, 0.25324813f, -0.14822902f, 0.18736997f, 0.02193455f, 0.01888789f, 0.16377789f, -0.064782366f, 0.113454066f, -0.060293872f, 0.20078725f, -0.3292392f, 0.15989515f, -0.11774247f, 0.067129694f, -0.12192484f, 0.19068071f, 0.09729956f, -0.4083744f, 0.10505451f, 0.1047865f, -0.14673686f, 0.09812076f, -0.011996785f, -0.01482886f, 0.009897951f, -0.09510329f, 0.10315915f, 0.055315766f, 0.01837923f, -0.25633973f, 0.028619159f, -0.15504359f, 0.09458034f, 0.016809002f, 0.019331833f, 0.05620121f, 0.15817149f, -0.09012898f, 0.004833431f, -0.08324643f, -0.1543917f, 0.049755927f, -0.09437768f, 0.21513906f, -0.07244416f, 0.22813305f, 0.12802899f, -0.07527842f, -0.0035750568f, 0.16783929f, 0.017786885f, -0.20438868f, -0.024486324f, 0.09023786f, -0.21065098f, 0.017831832f, 0.0676832f, -0.044472765f, -0.062433865f, 0.19315468f, -0.18069263f, -0.10058965f, 0.10466731f, 0.12603658f, -0.21475224f, -0.091462135f, 0.029530587f, -0.17787695f, 0.1417738f, -0.17956041f, -0.10925609f, 0.2914432f, -0.008952746f, -0.18923819f, -0.15135811f, 0.1440722f, 0.08378685f, -0.13282321f, 0.07651645f, 0.030315273f, -0.2723958f, -0.18452677f, -0.025299238f, 0.07521591f, -0.031556148f, -0.0018829321f, 0.01257068f, 0.14285176f, -0.09889187f, 0.14492312f, -0.12068807f, 0.101287425f, 0.100805506f, 0.056414574f, 0.08860654f, 0.0008825993f, -0.08779185f, -0.17938954f, -0.11167058f, -0.07520696f, 0.18649118f, 0.16081998f, -0.1299976f, 0.062788844f, -0.07287325f, -0.092661016f, -0.15104234f, -0.019481737f, 0.019207057f, 0.018247606f, -0.014561831f, 0.09187124f, 0.06721315f, -0.25621107f, 0.07192036f, -0.13432847f, 0.09125021f, 0.03932414f, 0.08168648f, -0.06863558f, -0.24160546f, 0.09560009f, -0.123478524f, -0.050314046f, -0.19617781f, 0.07997274f, -0.036807034f, -0.1520631f, 0.28172418f, 0.124308616f, -0.11813125f, 0.05215153f, -0.2192169f, 0.055761952f, 0.03924252f, 0.19890639f, 0.24056351f, 0.35953838f, -0.053891644f, -0.006803776f, -0.10987875f, 0.14307438f, 0.39906904f, -0.07401391f, 0.21030147f, 0.012559946f, 0.025747646f, -0.050899778f, -0.22998157f, 0.28920093f, 0.025015356f, 0.22029914f, -0.16634881f, -0.12599f, 0.043532833f, 0.18915771f, -0.20281081f, 0.04691049f, 0.12704231f, 0.07397067f, -0.09015135f, 0.08677341f, -0.14050116f, 0.002585925f, -0.099361345f, -0.14673641f, 0.15705065f, -0.15839115f, -0.11690511f, 0.083883874f, 0.120491914f, 0.071799405f, 0.30358618f, 0.1726248f, -0.08266743f, -0.15826467f, 0.12562783f, 0.5037448f, -0.26511776f, -0.19464858f, -0.18948534f, 0.48509282f, -0.1551149f, -0.0018847043f, 0.06975043f, 0.03484569f, 0.3226139f, 0.07633098f, 0.4681082f, -0.1249776f, -0.12744546f, -0.064634226f, -0.13474672f, -0.1408021f, 0.1280046f, -0.2962227f, 0.1736429f, 0.09002839f, 0.050816435f, -0.08044465f, -0.10549997f, -0.1445349f, 0.087861896f, -0.101543516f, 0.14468805f, -0.22442621f, -0.48902386f, 0.15988523f, -0.2702704f, 0.090062775f, -0.08704234f, 0.009325087f, 0.11984701f, -0.029406507f, -0.2907008f, -0.022439523f, 0.28926086f, -0.18675688f, -0.2309978f, -0.19755149f, 0.20447661f, -0.1070909f, -0.31092444f, 0.12874337f, 0.050417285f, -0.06613224f, 0.09473943f, 0.039652508f, 0.04767017f, -0.1298084f, -0.18269385f, 0.14051971f, 0.008077815f, -0.17538647f, -0.06025537f, 0.07804881f, 0.24845f, -0.07262328f, -0.04126505f, -0.10733873f, 0.16843386f, -0.05943265f, 0.032710567f, -0.18121798f, 0.10982873f, -0.18164146f, -0.25423717f, 0.071337014f, 0.11856373f, 0.12015175f, 0.07127541f, 0.012551329f, -0.19491413f, 0.038049527f, -0.054602727f, 0.008735005f, -0.040268112f, -0.10007035f, -0.074078776f, 0.25864485f, 0.048908766f, -0.08353107f, 0.6728367f, -0.099458516f, -0.10009568f, -0.0021586888f, -0.066831976f, 0.1917072f, 0.06390419f, -0.15760419f, -0.01524996f, -0.16920038f, -0.024095973f, 0.088670835f, 0.19236457f, 0.07549094f, 0.07961057f, -0.06118017f, 0.20055796f, 0.19924334f, -0.044726532f, -0.27456653f, -0.03985287f, 0.16407463f, -0.1321457f, 0.026469959f, -0.028661603f, 0.08208573f, -0.0017641948f, 0.10158433f, -0.13798837f, -0.211835f, -0.07714868f, -0.25284323f, 0.0054595373f, -0.030461356f, -0.06619117f, -0.2166341f, -0.13625787f, 0.12793933f, 0.076407604f, -0.054914117f, 0.15481144f, -0.104742646f, 0.050083824f, 0.21558735f, -0.10984894f, -0.032489408f, 0.08778482f, -0.091342196f, 0.006911205f, 0.07888321f, -0.17315215f, 0.018047784f, -0.10191084f, -0.19718067f, 0.42180035f, 0.012758406f, 0.017280104f, 0.08895085f, 0.09586776f, -0.33702013f, 0.1744302f, 0.21232878f, -0.018627651f, 0.009688024f, -0.079572216f, -0.14458175f, -0.12700771f, 0.013169172f, -0.015505177f, 0.17179546f, 0.004590247f, 0.19801398f, -0.18255606f, 0.044377528f, -0.008773512f, -0.06943856f, -0.22425583f, 0.033527695f, 0.19942658f, -0.04539203f, -0.048764955f, 0.19110388f, 0.31006387f, 0.038596652f, -0.17397186f, 0.23990442f, 0.3706763f, 0.1734853f, -0.20789345f, 0.003995158f, -0.948603f, -0.14059572f, 0.23629968f, 0.005610352f, 0.064643376f, -0.17206357f, -0.014392053f, -0.33836824f, -0.016879227f, -0.039615117f, 0.1013558f, 0.11699319f, 0.07420329f, 0.23165293f, 0.012695801f, -0.03226844f, 0.12734923f, -0.059198827f, -0.09268437f, -0.2483974f, 0.31285706f, 0.2441376f, -0.21380334f, -0.1959612f, -0.15455607f, 0.11590599f, 0.088979736f, -0.004164397f, -0.013095691f, 0.04391745f, 0.012596817f, 0.026793515f, 0.2541076f, -0.18128195f, 0.25015286f, 0.08307483f, 0.057434764f, -0.08411525f, 0.012617335f, 0.03482525f, 0.16659816f, 0.053539477f, -0.35874185f, 0.14285354f, 0.042666353f, 0.19058959f, -0.011259017f, 0.20092255f, 0.060743544f, -0.5406083f, 0.07819866f, -0.045852125f, -0.075251065f, 0.06687889f, -0.096021354f, -0.15025227f, 0.095691256f, -0.00089312496f, -0.11632415f, -0.035844047f, 0.0013970347f, -0.08948836f, 0.11335034f, -0.07855052f, -0.0688217f, -0.18272454f, -0.41314048f, -0.025479458f, 0.3260049f, 0.20368984f, 0.17581114f, 0.16608371f, -0.08919725f, 0.010889798f, 0.08995384f, -0.02342488f, 0.035528857f, -0.3174359f, 0.06239261f, -0.12472999f, 0.3355502f, -0.180821f, -0.28988102f, -0.123253316f, -0.25453368f, -0.08595795f, 0.101777144f, -0.11777753f, -0.21561289f, 0.036235493f, -0.21232551f, -0.09725238f, 0.09472666f, -0.05747782f, -0.19228035f, -0.1524867f, 0.14554426f, -0.0017740784f, 0.1058596f, 0.08741611f, -0.15145892f, 0.18984477f, 0.030779656f, 0.18136711f, -0.2591158f, -0.22145551f, 0.046979737f, 0.15095139f, -0.013440439f, 0.22981954f, 0.058509734f, -0.17481938f, 0.16366702f, 0.07984271f, -0.102082565f, -0.04376499f, 0.20981371f, 0.034715623f, -0.069546394f, 0.32796493f, 0.11604919f, -0.09818357f, -0.13910198f, 0.06468389f, 0.062237956f, 0.12642474f, 0.029167749f, -0.12710974f, -0.7460742f, -0.18760285f, 0.06896039f, 0.04681731f, -0.097220354f, 0.029231144f, 0.09429863f, -0.31874087f, 0.07404684f, -0.024718847f, -0.03607746f, -0.10341053f, 0.09454206f, 0.03340312f, -0.14312346f, -0.1259054f, 0.06796752f, 0.039591007f, -0.19197972f, -0.21001063f, 0.01583694f, 0.20087118f, -0.006722076f, 0.07179476f, -0.16452928f, 0.06279742f, -0.1440791f, -0.06466061f, -0.01078958f, -0.10087545f, -0.16790119f, 0.06533122f, 0.21535335f, -0.018598568f, 0.020080967f, 0.040747717f, 0.08575123f, 0.21026729f, -0.057694893f, 0.13934597f, -0.04350374f, 0.10738409f, -0.18593763f, 0.016734255f, -0.042252142f, 0.03605685f, -0.07479437f, 0.120693155f, -0.077879615f, -0.3032186f, 0.17077635f, 0.12204674f, -0.0030147973f, 0.33423996f, -0.0008919053f, 0.056163836f, 0.019576967f, -0.027949419f, -0.024297604f, 0.15141341f, 0.027420156f, -0.11228538f, 0.19393127f, -0.009267525f, -0.06610581f, -0.17495063f, -0.20333076f, -0.14438729f, 0.09514033f, -0.072466284f, -0.023351165f, 0.034829464f, 0.21857154f, -0.25036266f, -0.0063504907f, 0.19212237f, 0.3049542f, -0.117562525f, 0.22181217f, 0.07658891f, -0.0082426425f, 0.2011554f, -0.17919706f, -0.16646068f, 0.051530987f, -0.2314529f, -0.19641879f, -0.12055933f, 0.10196969f, 0.033612005f, -0.20964326f, -0.02934587f, -0.12497305f, 0.15403903f, 0.028449219f, 0.07143164f, 0.19741626f, -0.17273717f, 0.014490273f, 0.11473259f, 0.011990912f, -0.049150042f, 0.38316566f, 0.14888847f, 0.011225432f, -0.3207381f, 0.013547885f, 0.15504555f, 0.014757656f, -0.13891232f, 0.024435958f, 0.122750975f, -0.076457605f, -0.049985368f, 0.040658403f, 0.12826017f, -0.027270902f, 0.11965058f, 0.14106432f, 0.002988322f, 0.005615391f, -0.281529f, 0.16977854f, -0.051784173f, 0.10640754f, 0.079011194f, 0.008366301f, 0.2835486f, -0.24201353f, -0.053197574f, -0.1701092f, -0.09135158f, -0.10164422f, -0.05009268f, 0.091465496f, 0.08926565f, 0.21031892f, 0.098088585f, 0.1465929f, -0.10970931f, 0.1822646f, -0.18088865f, 0.15343493f, 0.039523695f, -0.10012181f, 0.047743633f, 0.10243994f, 0.2214087f, 0.0342363f, 0.14503007f, 0.21272056f, 0.04094657f, -0.12468213f, -0.16718832f, 0.11639047f, -0.23836926f, -0.10863007f, -0.21254629f, -0.04974533f, -0.11119816f, 0.25541726f, -0.13059795f, 0.18050109f, 0.1460344f, -0.21444924f, 0.2778576f, 0.06074263f, -0.25177842f, 0.0641124f, -0.11848681f, -0.09335278f, 0.040560294f, 0.020764401f, 0.08941271f, -0.00521315f, 0.17224395f, 0.15227342f, 0.071848676f, -0.10586227f, -0.22616342f, -0.0010396944f, -0.24997921f, -0.09740062f, -0.13822775f, 0.09493107f, -0.07185744f, 0.07343289f, 0.06748082f, 0.041020945f, 0.027080033f, -0.025876952f, 0.0329806f, 0.0729798f, -0.13638842f, 0.12287663f, 0.21430072f, -0.069959596f, -0.014860963f, -0.05959427f, 0.016074521f, 0.050418943f, -0.05239767f, 0.038016107f, 0.04668204f, -0.11087755f, 0.10857553f, 0.09001636f, -0.089351095f, 0.11999462f, 0.035985503f, -0.1510329f, -0.109213345f, 0.10039726f, -0.27714115f, -0.25644737f, 0.17428544f, 0.23080087f, -0.11599921f, -0.026799487f, 0.06478988f, -0.00045876257f, 0.15100887f, -0.115055814f, 0.11428519f, -0.13151096f, 0.23813666f, -0.08167129f, -0.057126846f, 0.23938479f, -0.19991615f, 0.005997783f, 0.18556634f, -0.173849f, -0.16114166f, -0.02023011f, -0.045702342f, 0.20204395f, -0.23451237f, 0.10838912f, -0.06326601f, -0.11531503f, -0.10244887f, -0.10615454f, 0.21322922f, -0.13042569f, 0.063836865f, -0.0833215f, 0.041537203f, 0.03275697f, -0.009855629f, 0.121806294f, -0.15854698f, 0.109301314f, 0.011519428f, -0.027180053f, 0.08983426f, -0.03457522f, 0.22853735f, 0.20274901f, -0.09908597f, -0.08753264f, 0.088227615f, 0.06666232f, -0.035638794f, -0.19040947f, -0.040216576f, -0.13758333f, -0.15493181f, 0.045046456f, -0.03867831f, -0.07104146f, 0.10352929f, 0.02086251f, 0.016571032f, 0.33969697f, 0.13007331f, 0.24603894f, -0.03127299f, 0.13881983f, -0.0047459314f, 0.14761317f, -0.14864525f, 0.1003804f, 0.090070754f, -0.10747615f, 0.0515488f, 0.43786535f, -0.08890731f, 0.038549047f, 0.088045776f, 0.06470194f, 0.08604847f, -0.111172505f, -0.0034962127f, -0.08018851f, -0.26459858f, 0.15085492f, 0.093507476f, 0.17312215f, -0.2691992f, -0.10915277f, -0.22050473f, 0.09934946f, 0.11060548f, -0.08758788f, 0.1674902f, -0.17211533f, 0.06944288f, 0.052747898f, -0.072921686f, 0.045192078f, -0.26609126f, -0.023663975f, -0.019756258f, 0.20741947f, -0.2745696f, 0.088914365f, -0.015619681f, -0.1179662f, 0.1885496f, 0.21557702f, -0.1906565f, 0.07159736f, 0.12729752f, -0.03249059f, 0.02227461f, -0.22123523f, -0.10763367f, 0.20554417f, -0.0900366f, -0.09288174f, -0.17133868f, -0.074449405f, 0.13800985f, -0.05881592f, 0.174827f, -0.06868886f, -0.41301772f, 0.09956118f, 0.04404395f, 0.13626115f, -0.09306348f, 0.14241572f, 0.1019612f, -0.12686929f, 0.28369957f, -0.19451955f, -0.14839284f, -0.30433697f, -0.062661916f, -0.16765508f, 0.1173547f, 0.18445835f, 0.080596924f, -0.152559f, 0.02946782f, -0.332165f, 0.18500914f, -0.005263956f, 0.0084316125f, 0.26934567f, 0.1875009f, 0.061271448f, 0.12605897f, 0.07894123f, 0.01082483f, 0.544812f, -0.17296208f, 0.061817568f, -0.17025456f, 0.16029385f, -0.22626616f, -0.0695871f, -0.0032846334f, 0.031430338f, 0.3278205f, -0.13775685f, -0.095142655f, 0.049671125f, 0.49270868f, -0.2359791f, 0.14711376f, -0.013000825f, 0.04719583f, 0.1124652f, -0.05040828f, -0.10763196f, 0.1570181f, -0.020974932f, -0.0013506287f, -0.24291553f, 0.18833268f, 0.19429451f, 0.24675672f, 0.037591737f, -0.16193701f, 0.040701207f, 0.20254606f, -0.1288062f, 0.30237722f, 0.0012795016f, -0.24405578f, 0.012744007f, 0.1492071f, -0.26006374f, -0.14852935f, -0.041831926f, 0.102013886f, -0.2545153f, 0.20851025f, 0.005831692f, -0.08946877f, -0.47884822f, -0.021004576f, -0.0001366095f, -0.15710396f, 0.36546168f, 0.3936714f, -0.1472849f, -0.12409375f, -0.078915015f, 0.022633953f, -0.0849471f, 0.3797528f, 0.17367177f, 0.024737844f, -0.13359174f, -0.06854574f, 0.10290917f, -0.20402591f, 0.55149806f, -0.10631334f, 0.17568894f, -0.15145268f, 0.14264455f, -0.079656534f, -0.09825357f, 0.07092646f, -0.020847976f, 0.15703592f, -0.32112795f, -0.15048651f, 0.021597622f, 0.24575499f, -0.1307239f, 0.0010873926f, 0.067996345f, -0.039170627f, 0.18062319f, 0.067318015f, -0.15789545f, -0.17678086f, 0.19603366f, 0.19523357f, 0.017457627f, -0.03296177f, -0.11929744f, 0.053464837f, -0.102928996f, -0.009732935f, -0.22385232f, -0.04427362f, -0.05783129f, -0.015279266f, 0.122007854f, -0.26982892f, 0.014550151f, 0.15603876f, 0.11729454f, 0.058320403f, -0.04951858f, 0.13147397f, -0.13493565f, -0.0392454f, -0.0011383123f, -0.041264422f, -0.24456911f, 0.20903529f, 0.07827917f, 0.008957511f, 0.07129397f, 0.20987792f, -0.0389453f, 0.050448373f, -0.3758976f, -0.17757925f, -0.1455769f, 0.026102524f, 0.061709348f, 0.041566435f, 0.073646486f, -0.29217678f, -0.20045614f, 0.09675975f, 0.31560555f, -0.26204887f, 0.3909813f, -0.09690568f, -0.22111738f, 0.05889892f, 0.041952953f, -0.22562611f, 0.27734756f, 0.074970916f, -0.13410516f, 0.21775798f, 0.13988116f, 0.2791325f, 0.10169914f, -0.047543433f, 0.12381937f, -0.20687255f, 0.13458604f, -0.050613195f, 0.07780613f, -0.06640935f, 0.021006694f, 0.07718281f, 0.0023485452f, 0.04164907f, -0.1878691f, 0.27553242f, 0.26243237f, -0.16266033f, 0.101700716f, 0.22642662f, -0.33585626f, 0.23474883f, 0.0032822837f, 0.13663304f, 0.034796752f, 0.051287595f, -0.15164286f, 0.21285181f, 0.14259985f, -0.3205526f, 0.06124032f, -0.05672408f, 0.13824555f, 0.19174701f, 0.06075072f, -0.16774917f, -0.057611667f, -0.15011786f, -0.02218674f, 0.128105f, 0.11913554f, -0.5642495f, -0.015702736f, -0.10822057f, -0.16297174f, 0.13320497f, 0.122368224f, 0.21573028f, 0.13265008f, -0.24247077f, 0.22004706f, -0.37441528f, -0.11665254f, 0.06983987f, -0.104612656f, -0.007121977f, -0.023069752f, 0.012669961f, 0.12818469f, -0.12744519f, -0.5764287f, -0.09091122f, -0.022212936f, 0.18942569f, -0.062063675f, -0.17846227f, -0.07108532f, -0.045264147f, -0.06073022f, -0.072245605f, 0.31343663f, 0.12327311f, 0.12625617f, 0.107255474f, -0.009234973f, -0.049319234f, -0.12503079f, 0.29778475f, 0.08797696f, -0.13400929f, -0.07269173f, 0.0002312781f, 0.11821808f, -0.12790051f, 0.17434844f, 0.09980958f, -0.10609281f, 0.11246078f, 0.035813738f, 0.11621631f, -0.040839523f, -0.10960055f, 0.23638424f, -0.15085886f, 0.19292095f, -0.3385799f, 0.001748938f, -0.10827299f, 0.017305825f, 0.045653794f, 0.2709399f, -0.07909933f, 0.018940045f, -0.07827103f, 0.11456662f, -0.19815294f, 0.044719245f, -0.08736258f, 0.007926187f, -0.2147956f, 0.15719204f, -0.19405766f, 0.30793512f, -0.10617077f, 0.03830869f, -0.06376171f, -0.0042715427f, 0.039667737f, -0.04396114f, 0.24554457f, -0.07590754f, 0.011819016f, -0.033459157f, -0.29335192f, -0.044318933f, 0.01787934f, 0.11491291f, 0.024091927f, -0.045442384f, -0.09665373f, 0.11164101f, -0.0927888f, -0.11332183f, -0.1245874f, 0.1475763f, 0.20183682f, -0.05149441f, -0.1121281f, 0.09892039f, 0.22315474f, 0.097291626f, 0.03214238f, -0.1089861f, -0.25967833f, 0.09175274f, 0.022098044f, -0.3068939f, -0.3383717f, -0.049308747f, -0.26840425f, 0.14799528f, 0.19267102f, -0.29337612f, -0.027482815f, -0.0085921455f, 0.07758802f, 0.04042296f, 0.09494524f, 0.09960757f, -0.21010467f, -0.031129269f, 0.012008378f, 0.452434f, 0.16722883f, 0.080643766f, 0.1084068f, -0.03361559f, -0.09023379f, -0.079821795f, 0.20150647f, -0.04717667f, -0.18615015f, -0.20054072f, -0.14398876f, -0.17793824f, -0.16498896f, 0.05294754f, -0.038395558f, 0.015561124f, 0.4220567f, -0.36780316f, -0.13688542f, -0.065651245f, 0.059083614f, -0.15033227f, 0.035646766f, 0.21174212f, 0.018776728f, 0.20772302f, -0.10993861f, 0.036397647f, 0.28258342f, -0.21034358f, -0.11051965f, 0.23622774f, 0.018171078f, -0.10769675f, -0.045444243f, 0.17827632f, -0.17337845f, 0.117370136f, -0.15479307f, 0.2627564f, 0.09558544f, 0.025001712f, -0.06300095f, -0.24747868f, -0.18871467f, 0.010314335f, 0.16591378f, -0.10618913f, 0.15883724f, 0.1442081f, -0.077452034f, -0.101975575f, -0.010084557f, -0.24052896f, 0.038403187f, 0.033193678f, 0.033195958f, -0.16425246f, -0.093158916f, -0.17172758f, -0.045434125f, -0.27385482f, 0.24612592f, -0.06029728f, -0.049537055f, -0.09382415f, -0.11934417f, 0.0008383081f, -0.04572496f, -0.11664635f, -0.05291147f, 0.007711652f, -0.15776964f, -0.11783941f, 0.2388195f, 0.1127691f, -0.03178648f, -0.025358811f, 0.09984067f, 0.13850717f, 0.20565963f, 0.21548976f, -0.24519023f, 0.044776123f, -0.052377984f, 0.13750803f, 0.17757837f, -0.24626122f, 0.25243366f, 0.24790813f, 0.033280052f, -0.29540718f, 0.17400247f, 0.10308723f, 0.21109296f, -0.044917013f, -0.07099389f, 0.08268515f, 0.02111736f, -0.07798145f, 0.07081146f, 0.060785584f, 0.13691707f, -0.19585156f, -0.009650808f, -0.026412135f, -0.11190947f, 0.12102938f, 0.12106122f, -0.043731052f, -0.13943087f, 0.090307906f, -0.21673216f, 0.043391142f, -0.041343346f, 0.05768864f, -0.03784474f, -0.08857392f, 0.018743062f, 0.2030782f, -0.050347548f, 0.21020624f, 0.0895435f, -0.1152827f, 0.060080018f, -0.036892883f, -0.12155716f, 0.089581095f, 0.03126206f, 0.064261556f, 0.15186137f, 0.056468096f, -0.10970526f, -0.027826605f, -0.07092515f, -0.24374378f, 0.09687477f, 0.04415035f, -0.2616601f, 0.19435012f, 0.19283284f, 0.13078068f, -0.063089624f, -0.29133022f, 0.20960575f, -0.02554017f, 0.12181189f, 0.29902202f, 0.0210253f, 0.039949637f, -0.23554249f, -0.06882952f, -0.037969373f, 0.036762156f, -0.0535206f, -0.056358885f, -0.16369067f, -0.10162578f, -0.019913368f, -0.118658476f, -0.12428356f, 0.07910224f, 0.16202456f, -0.15314758f, 0.14017734f, -0.059288863f, 0.09034861f, -0.026747443f, 0.12156082f, 0.1568513f, 0.09758704f, 0.2718038f, 0.22509299f, 0.13944444f, -0.14359044f, 0.14165819f, -0.15994881f, -0.007572958f, 0.0638783f, -0.084297076f, -0.15722746f, 0.25966725f, 0.2640678f, -0.026336309f, -0.02161444f, 0.011625978f, -0.07375831f, 0.11907011f, -0.09378034f, 0.04972607f, -0.18625659f, 0.087004654f, 0.08375145f, -0.078662336f, -0.02297675f, 0.104943395f, 0.060219727f, -0.0031264427f, 0.027855199f, -0.120274745f, 0.11642419f, 0.09181559f, -0.29111475f, 0.034116026f, 0.012823041f, 0.079756856f, -0.14368205f, -0.0037273092f, -0.08351893f, -0.09348351f, 0.120948926f, 0.04788655f, 0.058490776f, 0.12345936f, -0.12036805f, -0.0359979f, -0.21547186f, -0.001242154f, -0.20064545f, -0.011456349f, -0.14910749f, -0.05442314f, -0.20301597f, -0.13305293f, 0.018346379f, -0.12645261f, 0.04916387f, -0.056531493f, 0.030872263f, -0.1401812f, 0.14823304f, -0.069939815f, -0.05996602f, 0.23759201f, 0.15326633f, 0.093662366f, -0.043823656f, 0.040152628f, 0.20495383f, -0.06501504f, 0.07078813f, -0.15286411f, 0.2119301f, 0.18364006f, 0.23784f, -0.12782443f, -0.1484949f, -0.17041838f, 0.008631744f, -0.2310542f, 0.01169329f, 0.15364757f, -0.21384194f, 0.17192996f, 0.2655927f, 0.029776376f, 0.14841156f, 0.12914503f, 0.13074665f, -0.1535914f, 0.21956784f, 0.12926923f, -0.22534901f, 0.18881123f, 0.0028719367f, 0.06689777f, 0.15861757f, -0.11521517f, -0.25926754f, -0.047364727f, -0.15040553f, 0.046969336f, -0.32305908f, -0.19730893f, -0.016122177f, -0.2452113f, 0.10961037f, -0.037927166f, 0.024147507f, -0.06328117f, -0.12312939f, -0.14360265f, -0.19110414f, 0.028963897f, 0.012637891f, 0.27255952f, -0.34817755f, 0.0036200832f, -0.046323773f, 0.054552745f, -0.060182314f, 0.015045988f, -0.0036050086f, -0.09945463f, -0.14541572f, 0.08566904f, 0.20720507f, -0.1570451f, 0.0030623958f, -0.016756983f, -0.1374003f, 0.011881778f, -0.024878526f, 0.11331574f, -0.2506986f, -0.02528465f, -0.07092252f, 0.17654029f, 0.013368204f, -0.06188692f, 0.14323068f, -0.27049577f, 0.122144565f, 0.15296905f, 0.031629425f, -0.08001925f, 0.087078154f, -0.0325749f, -0.08618889f, 0.102675565f, -0.23689973f, -0.08239599f, -0.1838741f, 0.037246704f, 0.109676555f, 0.1222271f, -0.2096595f, -0.13506718f, -0.10242624f, -0.028363017f, -0.020126179f, 0.043108027f, 0.02427655f, 0.105080575f, -0.10909062f, 0.14406028f, 0.10837556f, 0.24955642f, -0.268288f, 0.17351136f, 0.08346976f, -0.012924003f, -0.047431335f, 0.085932106f, 0.053555977f, 0.005694737f, 0.22371219f, 0.058068316f, 0.09670693f, -0.14484547f, 0.3081638f, 0.15122867f, 0.058190756f, -0.13897333f, -0.012595727f, -0.09167135f, -0.07171358f, -0.035832155f, -0.077747844f, 0.10327612f, 0.13612837f, -0.019215817f, 0.170103f, 0.17915176f, -0.22019762f, -0.14444289f, 0.026693452f, -0.0032809058f, -0.2603859f, 0.083188996f, 0.012138654f, 0.20135716f, 0.036760796f, -0.16417275f, -0.15071408f, 0.062689155f, -0.15683107f, -0.09034824f, 0.08771415f, -0.05531803f, -0.01661312f, -0.1848026f, -0.027546557f, -0.18304704f, -0.030862601f, -0.058789432f, 0.061579417f, 0.0054719993f, -0.19452707f, 0.043510497f, 0.27894723f, 0.06975341f, -0.008740712f, 0.0065675173f, -0.05186726f, -0.10310732f, -0.15111537f, -0.082601264f, 0.05870904f, -0.07032124f, 0.14666766f, 0.10792975f, -0.13962959f, 0.2102532f, 0.1045648f, -0.042657986f, 0.03751225f, -0.12432647f, 0.2046492f, 0.3432783f, 0.22026256f, -0.061555333f, 0.04654886f, -0.096157305f, 0.3587139f, -0.02923582f, -0.030787284f, 0.08827096f, -0.11867054f, -0.0273f, 0.070340835f, 0.2970404f, 0.04594811f, -0.28877458f, -0.11426051f, 0.002986987f, -0.11363286f, 0.05615367f, 0.13556415f, -0.11394936f, 0.10724669f, 0.11576181f, 0.22816475f, -0.18052785f, 0.16903615f, -0.28699973f, 0.117366046f, 0.16276075f, 0.101519205f, -0.06833f, 0.22551286f, 0.019018695f, 0.16865745f, 0.07685669f, -0.06036971f, 0.22206713f, -0.051709604f, -0.08449608f, -0.24064492f, -0.15753162f, 0.01647461f, -0.11564736f, -0.00017287215f, -0.19170366f, -0.1992706f, 0.04118395f, 0.025918953f, 0.14723288f, 0.08859028f, 0.23921719f, 0.093175046f, -0.060569264f, -0.13151021f, 0.002173837f, -0.32211718f, 0.02566123f, 0.1582392f, -0.1385944f, 0.14810184f, 0.052555993f, 0.24397753f, -0.09083953f, 0.19082993f, -0.025511341f, 0.09028583f, -0.059648234f, -0.17908755f, -0.09740901f, -0.15238936f, 0.033495232f, -0.085313715f, -0.009266752f, 0.094448686f, -0.002348778f, 0.020039368f, 0.21621007f, 0.05986415f, 0.06766827f, -0.27781492f, -0.020312345f, 0.052306682f, -0.026512573f, -0.2485475f, -0.13847184f, 0.03178895f, 0.2970908f, -0.13276082f, 0.062010836f, -0.011311493f, 0.08536578f, -0.054105867f, -0.019200226f, 0.049381472f, -0.0786946f, -0.31971022f, -0.031723868f, 0.058389418f, 0.073923156f, 0.10160593f, -0.0469691f, 0.016777545f, -0.1725141f, 0.076033324f, 0.012286249f, -0.20739828f, 0.13931413f, -0.04284775f, -0.008305725f, 0.14951186f, 0.027345033f, -0.065050304f, 0.57177263f, 0.10819809f, 0.0077062566f, 0.015877659f, -0.1387114f, 0.19836909f, 0.18298942f, -0.0889322f, 0.12632512f, -0.121440694f, 0.03611771f, 0.05823439f, 0.13982104f, 0.06906287f, -0.19824664f, 0.06186832f, 0.2635453f, 0.022769464f, 0.031183628f, -0.15711793f, -0.062284056f, -0.056944784f, -0.1920595f, 0.011367573f, 0.22232923f, 0.07846328f, -0.10766965f, -0.12495994f, -0.3212511f, -0.024337435f, 0.14479198f, -0.12374947f, -0.1613751f, -0.029000774f, 0.098819435f, -0.124413304f, -0.08826264f, -0.03411783f, 0.17408414f, -0.029204058f, 0.13597928f, -0.3711622f, 0.04673104f, 0.07578801f, -0.14336614f, -0.05070373f, -0.040274452f, 0.13370395f, 0.12296583f, 0.11913449f, -0.25861678f, 0.18980953f, -0.091194384f, -0.21051052f, 0.33268827f, -0.304998f, -0.2779774f, -0.033788227f, 0.46682882f, -0.21241233f, -0.003618725f, 0.098872304f, 0.10892992f, 0.14801626f, 0.013329744f, 0.040903743f, -0.022413757f, 0.21790852f, 0.057840932f, 0.11829655f, 0.0017170344f, 0.1097659f, -0.24498257f, 0.11226635f, -0.18780892f, -0.05987283f, -0.021021727f, -0.094018616f, -0.0148815755f, 0.29358536f, -0.07865371f, 0.10728764f, 0.2224377f, -0.31693876f, -0.21150464f, 0.36458763f, 0.3206643f, 0.21003594f, -0.11956995f, -0.0962686f, 0.12800604f, -0.052583247f, -0.14741626f, -0.006859467f, 0.16812794f, 0.17199296f, -0.09383574f, 0.013682321f, -0.14501908f, 0.24479215f, 0.053368162f, 0.103011005f, 0.09947377f, 0.29518363f, -0.28757915f, -0.120928116f, -0.08377407f, -0.003990203f, -0.13878332f, 0.1083888f, 0.046231072f, 0.38494784f, -0.043716136f, 0.03331472f, -0.06742473f, 0.073620774f, 0.19936849f, 0.05167276f, -0.07023399f, -0.20544942f, -0.110701434f, 0.08653872f, 0.14931092f, 0.050044633f, 0.011886755f, -0.3546776f, -0.03774849f, -0.14056917f, -0.007113966f, 0.21255223f, 0.20686644f, -0.0019102072f, -0.17959078f, -0.18147397f, -0.081490606f, -0.11530752f, 0.024432408f, 0.01038721f, 0.096550174f, 0.12194617f, -0.1960126f, -0.06773173f, 0.061327714f, 0.24195892f, -0.20496793f, -0.07129881f, -0.11026859f, -0.102255054f, 0.07500953f, -0.062037524f, -0.050201062f, -0.08338017f, 0.019721238f, 0.058566123f, -0.052950222f, -0.08958779f, 0.07361526f, -0.23402771f, -0.24232483f, -0.028683348f, -0.22349697f, 0.16264124f, 0.113858975f, 0.021823239f, -0.1525391f, -0.086867675f, -0.009283938f, -0.115619294f, 0.26878977f, 0.023612626f, -0.29673904f, 0.059641868f, 0.20331852f, -0.030398974f, 0.14390856f, 0.0046793385f, -0.14907154f, -0.12891805f, 0.14605798f, 0.013984494f, -0.0754033f, 0.16676f, -0.13083138f, 0.18841773f, -0.08905821f, -0.22363469f, -0.16554292f, -0.25224796f, 0.17383002f, 0.17971607f, 0.17410155f, -0.0176714f, 0.20317629f, -0.18558247f, 0.09468764f, 0.23124532f, 0.086860016f, 0.20436029f, 0.22870938f, -0.1863113f, -0.014053667f, 0.049587995f, -0.1497119f, -0.12126215f, 0.14326893f, 0.21796812f, -0.2292273f, -0.10549298f, 0.17176491f, 0.092760935f, -0.09605094f, 0.06391487f, 0.078760006f, 0.13273056f, 0.058205843f, 0.0005532614f, -0.00011200946f, 0.10101435f, -0.041951716f, 0.09380339f, 0.037230335f, 0.10043303f, 0.050256897f, 0.107455686f, 0.033458546f, -0.03194126f, 0.14420615f, 0.22640428f, 0.037023082f, -0.25360465f, 0.13886033f, -0.21978818f, -0.012782665f, 0.024050176f, -0.14816561f, -0.099648006f, 0.24715231f, 0.040808253f, 0.15848656f, 0.05912039f, 0.18058462f, 0.046558227f, -0.011842459f, -0.13720073f, 0.2074721f, -0.20057428f, -0.09049072f, -0.20037459f, -0.022228321f, -0.032637566f, -0.023447787f, -0.16768017f, 0.08168035f, 0.029034896f, -0.11812815f, 0.20828982f, 0.050776612f, -0.324658f, 0.08923136f, 0.0047283224f, 0.0017330862f, -0.1767247f, -0.04656255f, 0.07422766f, 0.1109301f, -0.13126881f, -0.016628297f, 0.179265f, -0.017206322f, -0.016378406f, -0.041591305f, -0.10782494f, 0.017238652f, -0.077852406f, 0.21741216f, -0.252089f, 0.1045682f, -0.037152216f, -0.16662274f, 0.06177835f, -0.09402985f, 0.27119616f, -0.017100975f, -0.23003021f, 0.003748648f, 0.12871502f, 0.08045374f, 0.18582177f, -0.0815226f, -0.03868882f, 0.10346123f, 0.057643138f, 0.067176655f, 0.0678957f, 0.067073815f, -0.07685936f, 0.03824131f, 0.031155078f, 0.17775269f, -0.36593914f, -0.12269277f, -0.15577932f, 0.08474076f, -0.040412333f, -0.076687634f, -0.0125243375f, -0.0845369f, 0.21934254f, -0.08508296f, 0.064791046f, -0.40607285f, 0.11338299f, 0.03956037f, -0.08779583f, 0.32929036f, 0.16182701f, 0.069902964f, -0.17549594f, -0.040903393f, 0.09721326f, 0.002436589f, 0.041201923f, 0.0034588613f, -0.26689756f, -0.024150833f, 0.09120295f, -0.015182623f, 0.010883437f, 0.21578881f, -0.075857796f, 0.12945662f, -0.056516346f, 0.21165772f, -0.19618845f, 0.06602767f, 0.013514664f, 0.07475721f, 0.17480217f, -0.17219466f, -0.10706685f, 0.091193415f, 0.04603447f, -0.27574426f, -0.020997126f, 0.18295264f, -0.058155023f, 0.14720093f, -0.018613433f, -0.05054749f, -0.13642536f, -0.03568914f, -0.16082908f, -0.13989352f, -0.17283578f, 0.0023180386f, 0.16239296f, -0.000811109f, -0.09634898f, 0.14414601f, 0.055903357f, -0.101036176f, -0.23095644f, -0.28422132f, 0.24547815f, 0.0979262f, 0.117363326f, 0.009323492f, 0.39825824f, 0.093242995f, 0.15468775f, 0.036088318f, 0.2159536f, 0.10694216f, -0.17913416f, -0.004489797f, -0.16695811f, -0.03961527f, 0.057417907f, 0.015176739f, 0.12877189f, -0.21237342f, -0.19281924f, 0.1460107f, -0.13861935f, 0.04778344f, 0.17503181f, 0.04306995f, 0.27980617f, -0.04130575f, -0.052677836f, -0.10603113f, -0.12286833f, 0.15038759f, 0.0017252781f, -0.13629134f, -0.06289897f, -0.058601063f, 0.035067614f, 0.0023227518f, 0.26519075f, -0.06195779f, -0.09941172f, 0.12327481f, -0.13552722f, -0.21099922f, -0.0647749f, 0.17867847f, -0.07247221f, -0.13744767f, -0.13270931f, 0.12753956f, -0.15816644f, 0.07108464f, -0.10396649f, 0.06359798f, -0.049214054f, -0.08239889f, 0.11475494f, 0.05007711f, 0.09930024f, 0.14673221f, -0.0063678846f, -0.10058199f, -0.31826f, 0.109297365f, -0.016010504f, 0.31293365f, 0.13340136f, 0.09810525f, 0.103314295f, -0.25355718f, -0.29812923f, 0.06704087f, -0.2102828f, -0.07014773f, -0.22809222f, -0.05619492f, 0.12590113f, 0.052049246f, 0.13826552f, 0.2068643f, 0.071913734f, -0.025347319f, 0.23277272f, 0.2899591f, 0.08039525f, -0.07622317f, 0.035438865f, -0.10093669f, 0.0052632703f, -0.12186091f, -0.08949041f, 0.11134348f, -0.12413267f, 0.086933225f, -0.06865945f, 0.05192547f, -0.0841803f, -0.08695834f, 0.10510938f, -0.13843283f, 0.14023536f, 0.1300493f, -0.33597296f, 0.11869535f, -0.25425932f, -0.11560675f, 0.023809502f, 0.09662809f, -0.15225351f, 0.16858257f, 0.045420792f, -0.07557104f, -0.27035993f, -0.057028648f, -0.20548004f, -0.039690316f, -0.049280338f, 0.21279776f, -0.023655338f, 0.03120221f, -0.14035477f, -0.16828772f, -0.085366175f, -0.08054121f, 0.33622047f, -0.22160065f, -0.031573284f, 0.08732482f, -0.14376736f, 0.021424705f, 0.011854932f, -0.35948935f, -0.08691996f, -0.17909083f, 0.11773448f, 0.017579693f, 0.022243084f, -0.09316605f, 0.063108355f, -0.26423454f, 0.20618205f, 0.1568086f, -0.061053645f, 0.056092292f, -0.07422148f, -0.23302814f, -0.124294706f, -0.12035827f, 0.084991254f, -0.11805485f, -0.05570101f, -0.008357558f, 0.14040846f, -0.0074953823f, -0.115915425f, -0.14526393f, 0.17470624f, 0.009241544f, 0.29413474f, -0.044091027f, -0.082654685f, -0.11531484f, 0.05255316f, -0.15697f, 0.06723011f, -0.092012025f, 0.19435503f, 0.023846867f, 0.33989078f, 0.21513689f, 0.27876744f, -0.1097353f, 0.052404013f, 0.10986312f, 0.053336293f, 0.14058723f, 0.12486597f, -0.0010435644f, 0.08746395f, 0.04799594f, 0.021659812f, -0.13079691f, 0.23738053f, 0.013762228f, -0.04960887f, 0.114223875f, 0.024188956f, 0.12512812f, -0.14829724f, 0.20001929f, -0.2170872f, -0.0072709196f, 0.10801349f, -0.1134664f, -0.1963534f, -0.06134237f, 0.09776294f, 0.11932442f, 0.24081679f, 0.061518293f, 0.027620468f, 0.011482669f, -0.029627467f, 0.05021197f, -0.22730204f, -0.017306644f, -0.15788837f, -0.07480945f, -0.09120174f, -0.0009886882f, 0.005593013f, -0.0747114f, -0.108076155f, 0.06442003f, 0.21854384f, 0.022927346f, -0.28352284f, 0.099855214f, 0.16027753f, 0.011570793f, 0.092766725f, -0.0729598f, 0.18621819f, 0.049555775f, -0.07194184f, 0.13923126f, -0.068602666f, -0.06671237f, -0.18283588f, 0.11854823f, 0.015047413f, -0.2395933f, 0.055365253f, 0.042487226f, -0.0466869f, -0.10773581f, 0.1386434f, -0.16653985f, -0.0009604014f, 0.042588245f, 0.0042856075f, 0.08250658f, -0.0045378106f, 0.15957847f, -0.086358786f, 0.24522538f, -0.19268556f, 0.0056660497f, 0.023021165f, -0.24423471f, -0.06877421f, 0.055680707f, 0.107392766f, -0.22009225f, 0.051819455f, 0.0035291594f, 0.030086895f, 0.059052147f, 0.09409881f, -0.1975026f, 0.030429482f, -0.12046226f, -0.04164798f, -0.21384622f, -0.0074181324f, 0.09067122f, 0.2329995f, -0.12733671f, 0.0977074f, -0.12901992f, -0.034155954f, 0.075922534f, 0.0017167592f, -0.21116996f, 0.031986423f, -0.25724006f, -0.120297335f, 0.21724205f, -0.22010241f, -0.09227209f, 0.29343274f, 0.022802675f, -0.06580825f, -0.030214261f, 0.19331582f, 0.062994964f, 0.14416963f, 0.08819867f, -0.07775813f, -0.21342815f, -0.19554101f, -0.03970272f, 0.21322457f, -0.19294043f, 0.07818607f, -0.0070911627f, -0.11171215f, 0.07853175f, 0.07625727f, 0.063917354f, 0.10477714f, -0.09397182f, 0.1381693f, 0.05335456f, 0.01691472f, 0.058161534f, 0.20560043f, -0.0717991f, 0.21313848f, -0.12555474f, -0.019031245f, 0.27130845f, -0.11189608f, 0.09180623f, -0.11594328f, -0.20527503f, 0.012467345f, -0.1563234f, 0.093827374f, -0.060375214f, 0.04585282f, -0.2621353f, 0.07068883f, 0.06370711f, -0.12525843f, 0.08457178f, -0.17518409f, 0.004531326f, 0.2550852f, 0.20343837f, 0.07574377f, 0.04390643f, 0.053828903f, 0.036978517f, -0.04564449f, -0.15018731f, 0.2112537f, -0.18331474f, -0.2964785f, -0.2906568f, 0.31570262f, 0.01763492f, -0.062610716f, -0.12731645f, 0.064165846f, -0.07015214f, -0.13373984f, -0.042459648f, 0.1468792f, -0.027551796f, 0.09233584f, -0.11226877f, 0.15030527f, 0.059306964f, 0.13850403f, 0.07916054f, -0.08616286f, 0.1092822f, 0.06505339f, -0.049806047f, 0.20569324f, 0.1068704f, -0.10735509f, -0.052078355f, -0.2019292f, -0.15170924f, 0.0608995f, -0.079107575f, 0.08505018f, -0.47177118f, -0.2889665f, -0.1793787f, 0.09105332f, -0.101326145f, -0.027191527f, 0.17786585f, -0.2579326f, 0.27775425f, -0.15126677f, 0.10403943f, -0.09146683f, 0.18514714f, 0.09368784f, 0.21279353f, -0.09346892f, 0.21345139f, 0.12295397f, -0.27266645f, -0.19283909f, 0.07735251f, 0.17694962f, -0.17302276f, 0.02046451f, -0.16726361f, 0.2793333f, -0.12115362f, -0.07297586f, 0.024256198f, 0.066077895f, -0.29632849f, -0.16785337f, 0.30346513f, -0.120323725f, 0.22456132f, -0.032142173f, 0.26434165f, 0.20616181f, 0.036283743f, -0.071357146f, -0.13515413f, -0.20655426f, -0.20510867f, 0.36583975f, 0.011255843f, 0.17142203f, -0.1988417f, 0.09741316f, -0.013299123f, -0.10626445f, 0.20259576f, -0.14830832f, 0.2279309f, 0.35391507f, -0.2728475f, 0.17781961f, 0.26779085f, -0.06293203f, -0.1977454f, -0.12124893f, -0.02751193f, 0.13674052f, -0.17306128f, 0.06260413f, -0.056855552f, 0.06626609f, -0.1365531f, -0.21280481f, -0.11557721f, -0.3225026f, 0.086692154f, -0.085295364f, -0.08803154f, 0.008369153f, -0.05334103f, 0.08322147f, 0.12147922f, -0.13517414f, 0.055221133f, -0.31800193f, 0.081337556f, 0.34722087f, -0.12509468f, 0.08263238f, 0.006038024f, -0.063952416f, -0.043063927f, 0.13269639f, -0.034415536f, -0.022466775f, 0.16993578f, -0.087110616f, 0.2881077f, 0.13289654f, -0.123383954f, 0.29824224f, -0.011739338f, 0.12293089f, -0.084062904f, 0.110101365f, 0.25410524f, 0.052003276f, 0.029996866f, 0.13721165f, -0.22440442f, -0.3299517f, 0.10000209f, 0.07488614f, -0.11159775f, -0.1487574f, -0.32748312f, -0.009781446f, -0.098776445f, 0.15818486f, -0.31141922f, 0.12406872f, 0.044542f, -0.029308079f, 0.15316455f, -0.09839523f, 0.20869704f, -0.22473855f, 0.103219084f, -0.26405436f, 0.10563946f, 0.02978316f, -0.15762752f, 0.18983465f, -0.09777088f, 0.06339509f, -0.10606748f, 0.078915946f, -0.22010216f, -0.07274118f, 0.029350312f, -0.025452401f, 0.20568638f, 0.16040803f, -0.028301168f, -0.3081977f, 0.23732601f, -0.20563069f, 0.08629181f, -0.16254479f, -0.01969703f, -0.06140638f, 0.3090081f, 0.18602018f, 0.13805352f, 0.014174885f, 0.18570416f, -0.018834729f, -0.10422892f, -0.090480566f, 0.14749406f, -0.2636518f, -0.12683378f, -0.19061925f, -0.1946979f, 0.084912024f, -0.004529718f, -0.010634142f, 0.12120818f, 0.039643027f, -0.106139146f, 0.37484246f, 0.18761882f, -0.3153386f, 0.15964533f, 0.20601615f, 0.096896626f, -0.11426126f, 0.14144741f, 0.06765619f, -0.0019350965f, 0.15756063f, 0.10473005f, -0.086525686f, 0.022021262f, -0.18510726f, 0.057351485f, -0.014531665f, -0.16097623f, -0.21670829f, 0.10817011f, -0.16609809f, 0.08843513f, 0.0664554f, -0.06496166f, 0.02680838f, -0.2145906f, -0.21464379f, 0.06396914f, -0.1414982f, 0.13247545f, 0.02183821f, 0.147203f, 0.07252547f, -0.082456805f, 0.08278965f, 0.010721427f, -0.023275796f, -0.22046113f, 0.25963655f, -0.26964286f, 0.13252735f, 0.10196194f, 0.08264155f, -0.017486349f, 0.0030144067f, -0.054939784f, -0.20029515f, -0.13665101f, -0.09106437f, -0.21250081f, 0.15214755f, -0.09750485f, 0.027644053f, -0.1340541f, 0.025990425f, -0.2643823f, 0.14570071f, 0.19108924f, -0.085954465f, -0.17257188f, 0.07805211f, 0.032045785f, 0.12265133f, 0.07554203f, -0.2116527f, -0.14167665f, 0.23564254f, -0.14230444f, 0.0695875f, -0.1661036f, 0.085665196f, -0.018307496f, -0.09625882f, 0.26169434f, -0.13081332f, 0.016303014f, -0.16127917f, 0.017668692f, 0.266104f, -0.17037246f, 0.11233897f, 0.039533462f, 0.02938076f, -0.15484564f, 0.23747434f, 0.053138472f, 0.21973531f, 0.10218862f, -0.018036928f, 0.20015122f, 0.10869334f, -0.05605689f, 0.24619281f, 0.14020294f, -0.015247612f, -0.006858236f, 0.029452397f, -0.105633125f, -0.03613658f, -0.075086825f, 0.22383179f, -0.07590209f, -0.26560044f, 0.09898565f, -0.14825143f, 0.0080411965f, 0.095562086f, -0.035322335f, 0.10071893f, 0.3495254f, 0.23370346f, 0.10144252f, -0.0252192f, -0.06455328f, -0.020289065f, -0.08027587f, -0.24045938f, 0.086350456f, -0.21803439f, -0.038844347f, 0.05610381f, 0.21885236f, 0.028252967f, -0.021257816f, -0.007844021f, 0.17645228f, 0.17311274f, -0.03005916f, -0.04344052f, 0.10900594f, -0.15001138f, 0.29106826f, -0.13001299f, 0.21834481f, -0.120886974f, -0.027839996f, -0.17569326f, -0.06550229f, 0.04332173f, 0.19543386f, 0.23176105f, -0.0082353605f, -0.00045614125f, -0.1370232f, -0.21783654f, 0.12704515f, -0.28727907f, -0.083218746f, 0.011387932f, 0.25043067f, -0.1977309f, -0.15308158f, 0.038579464f, 0.03311355f, 0.13743253f, -0.15707718f, 0.006591428f, -0.044045508f, 0.028802678f, -0.07376067f, 0.28162283f, -0.04574724f, -0.036525976f, 0.16132319f, -0.00072734f, 0.087251596f, -0.1525045f, 0.005615529f, -0.267941f, 0.15357025f, -0.15074806f, 0.027390735f, -0.14507946f, -0.020483175f, 0.18303566f, -0.02178324f, -0.09953057f, 0.065034844f, 0.11836679f, -0.07144504f, 0.13514644f, -0.120630614f, -0.11181735f, 0.12370878f, 0.059634566f, 0.10461116f, -0.02016622f, 0.10457977f, 0.033164974f, -0.018316839f, 0.09868475f, -0.22082786f, 0.24327108f, -0.2249903f, -0.25022176f, 0.11041817f, -0.03407717f, 0.14861093f, -0.15926048f, -0.25607374f, 0.16020648f, 0.01663109f, -0.009948249f, 0.22341102f, 0.062326662f, -0.060068563f, -0.07989382f, 0.09245823f, -0.09492967f, -0.108897895f, -0.1574298f, 0.09631679f, -0.13306512f, -0.02193049f, 0.16607527f, 0.07154398f, 0.020086585f, -0.10664431f, 0.047230706f, 0.026603991f, -0.15866324f, -0.03579383f, 0.19617164f, -0.089859635f, -0.3006167f, -0.008613708f, 0.0891397f, 0.107077934f, -0.1359618f, 0.03318658f, 0.22253832f, 0.119904086f, 0.16831227f, -0.05043841f, 0.1562379f, 0.19770442f, 0.01681254f, -0.083018385f, -0.05034861f, -0.11658048f, -0.13374197f, -0.094996735f, -0.06315412f, -0.005842567f, -0.07662344f, 0.07474377f, 0.24411115f, -0.02288446f, 0.1581503f, 0.067628846f, 0.14972055f, 0.07481747f, 0.11280392f, 0.025953736f, -0.097953804f, 0.22733179f, -0.061755557f, 0.21435396f, 0.038061652f, -0.1281723f, -0.43708193f, -0.017060028f, 0.04658338f, -0.0915027f, -0.25534564f, -0.05475504f, 0.117607094f, -0.075860284f, 0.060900256f, -0.13639696f, 0.20727642f, -0.07885413f, -0.018682104f, 0.14452149f, -0.16486971f, -0.05234074f, -0.2858676f, 0.24430843f, -0.28461394f, 0.11719859f, -0.0082916645f, 0.12967697f, 0.1856506f, 0.10173409f, 0.14111778f, -0.05557073f, 0.08038287f, 0.1417914f, -0.09156354f, 0.19360596f, -0.11768545f, -0.09337955f, 0.18222964f, -0.18143198f, 0.09098499f, -0.38080466f, 0.073865056f, -0.24336326f, -0.005830227f, -0.038270537f, -0.19452137f, -0.08809417f, 0.05955508f, 0.019362789f, 0.119459406f, 0.10224499f, 0.13944891f, -0.17766924f, 0.13151105f, 0.066873826f, -0.12563626f, -0.16281003f, 0.02348829f, 0.03125271f, 0.16248408f, 0.11747624f, -0.034493458f, -0.16430102f, 0.18649745f, -0.06955076f, 0.10844789f, -0.7131848f, -0.013279155f, -0.153794f, -0.19901782f, -0.07095632f, -0.20305513f, -0.44257805f, 0.28603405f, -0.10331117f, 0.07934592f, 0.1424484f, -0.004018009f, -0.09791992f, 0.07038338f, 0.023180868f, 0.20832327f, 0.08752909f, -0.11842532f, 0.10690875f, 0.188715f, 0.022124264f, -0.028417228f, -0.20091967f, -0.20858012f, 0.21290818f, -0.049908433f, -0.11862743f, 0.028230393f, 0.40344697f, 0.07167945f, -0.22656131f, -0.014146818f, -0.1447943f, -0.11244714f, 0.05333274f, 0.23927452f, -0.07971844f, -0.04392139f, 0.06845287f, 0.33343422f, 0.009386722f, 0.006164321f, -0.26584372f, 0.074512586f, 0.37368268f, 0.15528396f, 0.18940191f, -0.10174432f, 0.041670214f, -0.09603928f, -0.040963586f, -0.053107046f, 0.1777517f, -0.108145654f, -0.2736643f, -0.04690357f, 0.022528531f, 0.19974844f, -0.023876961f, 0.19861257f, 0.100123525f, 0.038313977f, -0.055018727f, 0.018061077f, 0.041678302f, 0.023237858f, 0.35660484f, 0.22358385f, -0.21982335f, -0.2723245f, -0.011347951f, -0.3576183f, 0.29926792f, 0.15620103f, -0.039153155f, -0.1164373f, 0.19226868f, 0.028017556f, -0.20440216f, 0.067393154f, -0.1913091f, -0.2625653f, -0.27755058f, 0.13054657f, 0.15344708f, 0.05549413f, -0.20045589f, -0.15345201f, 0.050765194f, -0.08097586f, -0.02182448f, 0.25749075f, 0.1185572f, -0.08153568f, -0.0812824f, -0.16094945f, 0.13043097f, 0.05002664f, -0.115506485f, 0.23573036f, 0.1430075f, -0.017489698f, -0.119340725f, 0.22576976f, -0.3160771f, 0.14819907f, 0.038477756f, 0.20206141f, -0.050373465f, 0.032842904f, 0.042467218f, 0.2518283f, 0.1788351f, 0.047308825f, 0.020160746f, 0.024464808f, 0.11658302f, -0.09183498f, 0.110334925f, -0.053219844f, 0.17993903f, 0.17158318f, 0.06365341f, 0.16935222f, 0.08152343f, -0.33103308f, -0.09195557f, 0.047115453f, 0.010857296f, 0.053136934f, 0.05320031f, -0.13131449f, -0.10435667f, -0.06618064f, 0.08267412f, -0.15125309f, -0.3329972f, 0.20039877f, -0.20140208f, -0.044357534f, -0.12536569f, 0.08989597f, 0.034398597f, -0.13741402f, -0.2180593f, -0.3274023f, -0.10110906f, 0.061305907f, 0.2148588f, -0.24857576f, 0.17709722f, -0.07748808f, -0.018114839f, -0.1106955f, -0.40219653f, 0.040356528f, 0.041763198f, 0.025602931f, 0.02841416f, -0.16954674f, 0.14634852f, -0.13742125f, 0.04182709f, -0.052254513f, 0.0715907f, -0.0108618885f, -0.009749256f, 0.1366766f, 0.05009011f, -0.15337819f, -0.13411163f, 0.14774257f, -0.0951442f, -0.30773455f, -0.071598835f, 0.21359308f, 0.02657581f, 0.111446224f, -0.22704369f, 0.23418444f, -0.057426043f, 0.10895835f, 0.041423507f, 0.14725749f, -0.15131666f, 0.10198552f, -0.11179889f, -0.16494548f, -0.034428827f, -0.09376893f, 0.11898852f, -0.20765874f, -0.123769954f, 0.08180236f, -0.1855683f, 0.006236148f, -0.26503265f, 0.2427676f, -0.1182784f, 0.16180678f, 0.071798764f, 0.19838777f, -0.2118109f, -0.38808224f, 0.22167487f, 0.1232128f, -0.07471114f, 0.12345299f, -0.09815394f, -0.03396423f, -0.0018717829f, 0.10031123f, -0.10641572f, 0.20384558f, 0.05454719f, 0.04868659f, 0.0038991065f, 0.10817958f, 0.019883139f, -0.030811332f, -0.35862967f, 0.11241915f, -0.08106336f, -0.17538664f, 0.05828512f, 0.16112815f, 0.12905157f, 0.12889278f, 0.032789703f, -0.12419134f, -0.19195008f, -0.14823651f, 0.075100675f, 0.08523868f, 0.42535284f, 0.048810385f, -0.18624003f, 0.1087921f, -0.23038898f, -0.33474663f, 0.069997706f, 0.10277905f, -0.0096197445f, -0.24003196f, 0.068498075f, 0.061561983f, 0.13379976f, 0.22280063f, 0.06685813f, 0.15876137f, -0.0880232f, 0.23065488f, -0.05396058f, 0.09764697f, -0.056314f, 0.12306635f, 0.064213336f, -0.10174251f, -0.22006686f, -0.48482603f, -0.07981592f, -0.15449084f, -0.0675128f, -0.038681354f, -0.06301702f, 0.09776124f, 0.006206468f, 0.1083403f, -0.053626105f, -0.0448608f, 0.16144599f, -0.10536788f, 0.13320446f, -0.1904758f, 0.04639096f, 0.01012378f, 0.29846373f, -0.3420461f, 0.009359068f, 0.10929954f, -0.02791155f, 0.012153965f, -0.12736626f, 0.14527288f, -0.1765776f, 0.062848546f, -0.20436555f, 0.031557087f, -0.15140153f, 0.18514758f, 0.18959308f, 0.18459311f, 0.07020661f, -0.28169173f, 0.17370512f, -0.1337895f, -0.06347836f, 0.11231155f, -0.14594616f, 0.1432328f, 0.2853049f, 0.07321581f, 0.09793318f, 0.1032706f, 0.06431601f, 0.023140969f, -0.09406209f, 0.041190144f, 0.020011947f, -0.11982475f, 0.17416629f, -0.24848157f, -0.16462968f, 0.12047956f, 0.10673648f, -0.050337873f, 0.17461486f, 0.119816884f, 0.06377135f, 0.12742859f, 0.093753085f, -0.25583342f, 0.22299749f, -0.002293414f, 0.100804485f, -0.09503105f, 0.021450326f, -0.021416219f, 0.015337827f, -0.074486226f, -0.051866803f, 0.19013302f, -0.060991794f, -0.10537519f, -0.021798704f, -0.29200643f, 0.044947572f, -0.24653332f, 0.049730744f, -0.22547226f, 0.13784045f, -0.10263731f, 0.004883903f, 0.123076804f, -0.23736116f, 0.020255866f, -0.07120794f, 0.13409923f, -0.1571865f, -0.29310253f, -0.002925074f, 0.089960665f, -0.058995638f, 0.10545158f, -0.15622391f, -0.12887505f, 0.047270615f, 0.13130939f, 0.12307842f, -0.1908866f, 0.13096303f, -0.119078055f, 0.15629908f, 0.25318587f, -0.17738296f, -0.14788455f, -0.034757324f, 0.16329779f, -0.048769113f, 0.036147032f, -0.1732541f, -0.2331127f, -0.11844195f, 0.08162295f, 0.4849351f, -0.022477852f, -0.02798886f, 0.015829736f, -0.011975198f, -0.09630535f, 0.13941312f, -0.063051306f, 0.036778938f, 0.015652908f, -0.098911315f, -0.33440048f, -0.03302145f, -0.16001418f, 0.1957919f, 0.09922739f, 0.14989765f, 0.1682693f, -0.38714227f, 0.009018155f, -0.30386204f, 0.0085696345f, -0.1737836f, 0.11475821f, 0.22236925f, 0.015717285f, 0.05652661f, 0.08083431f, 0.11990893f, -0.03344403f, -0.10109514f, 0.14435259f, 0.45515814f, -0.017232867f, -0.19365576f, 0.2479277f, 0.0869016f, 0.08118829f, -0.08660948f, -0.08159728f, -0.28299206f, 0.14120346f, 0.07167935f, -0.055418238f, 0.20511454f, -0.10507759f, 0.05069214f, -0.13621165f, 0.1018148f, -0.017452046f, -0.11347268f, -0.123903535f, 0.018025467f, 0.108593635f, 0.20639218f, 0.042903867f, 0.079064794f, 0.1313311f, 0.10675455f, 0.071283005f, -0.043715686f, 0.00833489f, 0.20388077f, -0.28872487f, 0.11853148f, -0.15406317f, -0.27146128f, 0.09810602f, 0.21268447f, -0.17977887f, 0.17054023f, -0.04626449f, -0.038740586f, 0.24272496f, 0.09864083f, -0.08839305f, 0.108765155f, 0.06648569f, -0.017118707f, -0.049965873f, 0.07447322f, -0.04997925f, -0.048469655f, -0.090314634f, 0.17996217f, 0.045946427f, -0.06299889f, -0.12047542f, 0.090083495f, -0.01796094f, -0.0755181f, 0.11511006f, 0.091049574f, -0.22448586f, -0.050723042f, -0.03139614f, 0.0015831261f, -0.11613767f, -0.14818639f, 0.19182663f, -0.17198901f, -0.01207031f, -0.026481537f, 0.08545957f, -0.22856851f, 0.0698036f, 0.060671277f, 0.083088525f, 0.23023446f, 0.16840172f, -0.026101237f, -0.013624341f, 0.20029439f, -0.13435416f, 0.051859945f, -0.03294876f, 0.0026523876f, 0.050217785f, 0.11897624f, -0.016777916f, -0.011480637f, -0.05824107f, 0.0047345436f, -0.15653783f, -0.096659355f, -0.12413759f, 0.008341504f, -0.22265412f, -0.084741816f, -0.049052805f, -0.10943685f, 0.015849313f, 0.15728374f, 0.019623732f, 0.03968261f, 0.12137071f, 0.04801433f, 0.17361487f, 0.0375894f, -0.2880193f, 0.23835266f, -0.12525313f, -0.03802259f, 0.048765503f, 0.16580069f, -0.034263246f, -0.042345356f, 0.21693188f, 0.0160256f, 0.22338378f, 0.08801989f, -0.09912503f, -0.12958637f, -0.16876239f, -0.119154476f, -0.06458652f, 0.13559924f, -0.08274482f, 0.09851591f, -0.13950281f, -0.08128978f, -0.07134519f, -0.06348143f, 0.07731527f, 0.8280366f, -0.0052982206f, -0.13149832f, 0.044492595f, -0.011585426f, -0.025728377f, -0.11657101f, 0.33901116f, 0.26238385f, 0.040091164f, 0.0069680647f, -0.07552947f, -0.17357907f, -0.24296172f, 0.020829068f, -0.043665383f, -0.22338052f, 0.015621769f, -0.17853606f, 0.17728288f, -0.29505402f, -0.025503175f, -0.07851867f, 0.22452815f, 0.35851127f, 0.04793816f, 0.30195788f, -0.033786636f, -0.08329632f, 0.04386895f, -0.0604825f, -0.04106979f, -0.0970791f, 0.02890425f, -0.27355868f, -0.30892164f, -0.050025415f, 0.051394224f, 0.029625721f, 0.22651966f, -0.09385346f, 0.091123864f, 0.29258752f, -0.017623784f, -0.06437612f, 0.12376437f, -0.04804968f, -0.2738284f, -0.048880357f, 0.49358988f, -0.11804319f, 0.11794742f, -0.09757697f, -0.16289848f, 0.1674699f, 0.2491782f, -0.09354803f, -0.12968026f, -0.18074937f, 0.047699768f, -0.04925385f, 0.10451781f, -0.0860195f, -0.2947399f, 0.099013805f, 0.014356946f, 0.016442439f, -0.104442514f, 0.28262013f, 0.084576376f, -0.07170916f, 0.06730355f, -0.09363791f, -0.090837546f, -0.06900049f, 0.17235193f, -0.05387173f, -0.04022042f, -0.14842543f, 0.09172464f, 0.15214087f, -0.114173785f, -0.31281304f, -0.13934258f, -0.23472688f, 0.028988674f, 0.041655973f, -0.084807776f, -0.07998778f, -0.0020996314f, -0.105367176f, 0.12847185f, -0.036877487f, 0.08797664f, 0.21941166f, 0.048040316f, -0.21971028f, 0.1403861f, -0.19761778f, -0.1772033f, 0.07097089f, -0.0906795f, -0.0012016009f, 0.14546606f, -0.16743821f, 0.02910293f, -0.027321115f, 0.113381214f, 0.10415426f, 0.0077863308f, 0.14755127f, 0.0758921f, -0.107782185f, -0.2180801f, -0.0029856646f, 0.23887387f, -0.059026387f, 0.083202444f, -0.102109335f, 0.26125103f, -0.18883845f, 0.32701877f, -0.05854063f, 0.030744476f, 0.060542926f, -0.15563425f, 0.21365932f, 0.16811651f, -0.1539785f, 0.0060056006f, -0.13011768f, 0.11512094f, -0.01616142f, 0.18545856f, -0.06943576f, 0.16988988f, 0.17190841f, 0.17943119f, 0.027053073f, -0.33456832f, 0.22187084f, -0.1599899f, -0.0007103954f, 0.11979643f, -0.023170989f, 0.07291632f, 0.34254375f, 0.07731041f, 0.028997138f, -0.23691364f, 0.06594546f, -0.1793266f, 0.063761905f, -0.13588502f, 0.09827516f, -0.025957515f, -0.21703084f, -0.17717946f, -0.24826092f, -0.051142547f, 0.23926984f, -0.011865829f, 0.1197209f, 0.012579382f, -0.09762748f, 0.20540415f, 0.09432887f, -0.24820045f, 0.09815941f, 0.0953708f, 0.054034542f, -0.2564139f, 0.080424614f, -0.13179159f, 0.17827833f, 0.05085734f, 0.25690216f, 0.1838417f, 0.17692699f, -0.2869892f, -0.0060810484f, -0.18535866f, -0.16468222f, -0.068774305f, -0.10608456f, -0.20146582f, 0.038750738f, 0.040724173f, -0.112324074f, -0.12476345f, -0.064113766f, -0.28252f, 0.08313103f, -0.11339639f, 0.21596256f, -0.08958196f, 0.28259006f, -0.14769061f, 0.033774577f, 0.04332696f, -0.2740367f, -0.19442382f, -0.014206208f, 0.2034179f, -0.124048255f, 0.19053634f, -0.09202896f, -0.040349454f, -0.12356522f, 0.07238267f, -0.16361497f, -0.28146803f, -0.006780825f, 0.20285301f, -0.24802816f, -0.00614236f, -0.13513815f, -0.02439135f, -0.045290463f, 0.34074035f, 0.011430777f, -0.02819297f, 0.19733678f, -0.052078653f, -0.07713819f, 0.09142869f, -0.0853608f, -0.036110952f, 0.18744758f, -0.37616217f, -0.13939881f, 0.20057927f, 0.09981935f, 0.06757579f, -0.08294938f, 0.0012222475f, -0.032138348f, 0.06708932f, -0.024812773f, -0.02269876f, -0.1550917f, -0.10796631f, 0.085546f, 0.17008747f, -0.1619468f, 0.31193498f, 0.16464321f, -0.04418035f, -0.23130503f, 0.017088305f, 0.10402318f, -0.008818055f, 0.10982997f, 0.12081705f, 0.2968502f, -0.024664205f, 0.14488357f, -0.045923203f, 0.037035987f, 0.14956824f, 0.052968316f, 0.18219148f, -0.1856882f, 0.08196633f, 0.12701318f, 0.17902072f, 0.10705486f, -0.1506262f, 0.06533659f, 0.07169946f, -0.04429789f, 0.25293508f, 0.14312991f, -0.3269432f, 0.06561909f, 0.11255808f, 0.033808645f, 0.0013163063f, 0.10883458f, -0.19523966f, -0.07400549f, 0.13570647f, 0.03529069f, -0.24513762f, -0.21422611f, -0.14858976f, 0.010077806f, -0.11919819f, 0.06777479f, 0.2312263f, -0.10999554f, -0.2909872f, -0.27197558f, 0.15243445f, 0.115065835f, 0.14106485f, -0.020063695f, 0.1324707f, -0.15370747f, -0.03639656f, 0.11950782f, -0.14658584f, 0.4975122f, -0.28639045f, 0.22010948f, -0.16222207f, 0.046106998f, -0.011771402f, -0.06603548f, -0.21814077f, 0.0013639763f, 0.10283733f, -0.21881676f, 0.123836294f, 0.12038011f, -0.024595696f, -0.15525815f, -0.046002965f, 0.122238465f, -0.13550787f, 0.0186061f, -0.20389137f, 0.07833766f, -0.03659704f, 0.18350202f, 0.0069917175f, 0.08232946f, -0.06482292f, -0.15902106f, -0.27328262f, -0.12255478f, 0.025923438f, 0.045660395f, -0.07441448f, 0.16825083f, -0.13341744f, 0.023831582f, 0.061031435f, -0.07632138f, -0.021407621f, -0.15193488f, -0.13658023f, 0.034671586f, 0.01525949f, 0.019782756f, 0.17027092f, -0.17826128f, 0.0412991f, 0.10556323f, 0.13638009f, -0.06659696f, 0.10783231f, -0.11596031f, 0.09258666f, 0.06845249f, 0.09695611f, 0.016963426f, -0.14901866f, -0.102535754f, 0.3822919f, -0.20109195f, -0.1300498f, -0.047988024f, 0.34787732f, 0.20807385f, 0.0062658563f, -0.104138315f, -0.24642928f, -0.25441855f, 0.13056426f, 0.13664941f, -0.028806895f, -0.11271389f, 0.022132006f, 0.3440761f, 0.06250615f, -0.1543593f, 0.18216214f, -0.011818232f, 0.059234418f, -0.0031463504f, 0.18646033f, 0.12645689f, 0.16355313f, 0.09293369f, -0.064422734f, -0.24735157f, 0.13730288f, 0.07111044f, -0.094545215f, 0.07435609f, 0.15199597f, 0.1559699f, -0.17215453f, -0.015482662f, -0.106428586f, -0.101328045f, -0.2818378f, 0.011500881f, 0.011607031f, 0.3456074f, 0.054429237f, -0.15013814f, -0.072165176f, -0.1316176f, -0.09215108f, -0.06401705f, -0.05470018f, -0.17071687f, 0.11612276f, -0.17115362f, -0.08386609f, 0.08446f, 0.17461751f, -0.21944842f, 0.016591068f, 0.19342448f, -0.011339216f, 0.08944442f, 0.094735496f, 0.0722237f, 0.13846393f, -0.05581913f, 0.17142293f, -0.21733609f, -0.32631534f, 0.017694728f, 0.082749285f, 0.132562f, 0.11983708f, 0.038064387f, -0.27369037f, 0.038788904f, -0.070834346f, 0.09804202f, -0.14010724f, 0.119645886f, -0.006219569f, 0.033842888f, 0.23941624f, 0.100891f, -0.14551096f, -0.027057175f, 0.13437086f, 0.014597796f, 0.14618148f, -0.17001061f, -0.026705237f, -0.13085073f, 0.06995763f, -0.07316468f, -0.08777117f, 0.07470633f, 0.08282851f, -0.035116147f, -0.10294778f, 0.056559052f, 0.17396952f, -0.013374727f, -0.21727516f, -0.15894413f, -0.18561839f, 0.09703011f, 0.0727241f, -0.15986401f, -0.08875459f, -0.0493837f, 0.08726478f, 0.18936035f, 0.26762867f, 0.25220624f, -0.10227412f, -0.16325004f, 0.041970514f, 0.15962203f, -0.24921744f, 0.10217798f, -0.24202572f, 0.08502299f, 0.06929912f, -0.0622391f, 0.09863908f, 0.10964072f, -0.09222261f, -0.059327383f, 0.2670462f, -0.37020582f, -0.15557525f, 0.15829f, -0.020123089f, -0.02376087f, -0.17915241f, -0.16348246f, 0.07718554f, -0.03861307f, 0.17384036f, 0.28659782f, -0.03285029f, 0.020995542f, -0.15379879f, -0.06443796f, -0.080540955f, -0.20529395f, -0.112571254f, 0.057033982f, 0.21975854f, 0.020832473f, -0.113652304f, 0.068490155f, -0.16868877f, 0.05636523f, 0.10145199f, -0.117186025f, 0.15440923f, -0.34543163f, 0.20547387f, 0.050379686f, -0.07537513f, 0.23492007f, 0.14859922f, 0.006805674f, -0.10297409f, 0.10409527f, -0.12332598f, -0.29696727f, -0.17345858f, 0.22828278f, -0.17689945f, 0.20619309f, -0.03149208f, -0.32625508f, 0.09411195f, -0.029254999f, -0.052293777f, 0.0952092f, -0.04590893f, 0.15845609f, -0.27912793f, 0.028300377f, 0.14764339f, 0.23150241f, 0.09945416f, 0.08188039f, -0.04255949f, -0.19597162f, -0.018026391f, 0.10282558f, 0.2310576f, 0.038130783f, 0.15017013f, 0.014065159f, -0.24689046f, -0.29592228f, -0.19789483f, 0.16624951f, -0.012627667f, -0.038005304f, 0.1423015f, -0.22701056f, -0.030494554f, 0.04992247f, -0.030869467f, -0.19912918f, -0.029653296f, 0.17897472f, -0.102799796f, -0.09161437f, -0.30101818f, 0.25719264f, 0.15645666f, 0.01686676f, -0.26071087f, 0.07239904f, 0.11950495f, -0.2669974f, -0.05283948f, -0.044542756f, -0.034826458f, -0.07447585f, 0.015922958f, -0.019828027f, 0.3010939f, -0.08526047f, -0.18944193f, -0.062195353f, 0.001490199f, 0.024983764f, -0.26311702f, -0.3489376f, 0.015324487f, -0.06661262f, 0.009127537f, 0.044109702f, -0.080478296f, 0.11690308f, 0.2173571f, 0.17790583f, 0.034544244f, 0.015028342f, 0.044302385f, 0.048755806f, -0.019794513f, 0.054733265f, -0.09607846f, 0.23372093f, -0.07492475f, -0.018963179f, -0.02306656f, 0.036811765f, 0.07285965f, -0.11162559f, -0.05615093f, -0.2801535f, 0.22394282f, -0.985744f, -0.12910226f, 0.01923344f, 0.22934401f, 0.13681698f, -0.28262672f, -0.18466298f, 0.22560509f, -0.124027506f, -0.12809591f, 0.2932412f, -0.07200173f, -0.12950552f, 0.033361547f, 0.18408443f, 0.08756928f, -0.06742942f, -0.18508394f, -0.003397723f, 0.29711217f, -0.030486066f, 0.064864226f, 0.08520226f, -0.18614273f, -0.08449196f, 0.1748595f, -0.11734179f, -0.13623655f, -0.3807504f, 0.05616472f, 0.10287729f, 0.12375327f, 0.03289438f, 0.08599665f, -0.054405f, 0.0034258342f, 0.23305187f, -0.022959815f, 0.10613997f, -0.040709298f, -0.09536158f, -0.09686814f, 0.42664707f, 0.15310156f, -0.19518991f, -0.09096338f, -0.06362961f, -0.12485045f, -0.2178994f, -0.028825147f, -0.10796918f, 0.115097225f, 0.07486105f, 0.0151352305f, -0.01970418f, 0.09340016f, 0.109610625f, 0.09221001f, -0.05302054f, 0.2462278f, 0.14955576f, -0.06435694f, 0.17428148f, 0.11683607f, 0.023448292f, -0.15187985f, -0.1265612f, -0.29379433f, 0.06484908f, 0.021933408f, -0.07896188f, 0.027991375f, -0.15001494f, -0.07317963f, -0.038197704f, 0.090640575f, -0.09689775f, -0.076502286f, 0.21305412f, -0.0630967f, -0.038623836f, -0.1371157f, 0.16940263f, -0.101364225f, 0.26040366f, -0.09037852f, -0.010373892f, 0.014966537f, 0.021084394f, -0.03133848f, -0.039567918f, 0.19393326f, 0.025768645f, 0.027218206f, 0.04159561f, -0.1910176f, 0.26527435f, 0.04858406f, -0.12103549f, -0.22637492f, 0.104716055f, 0.17291434f, 0.0061954907f, -0.1958817f, 0.07638329f, 0.09502008f, 0.11787959f, 0.09790919f, 0.016241038f, -0.050506804f, 0.06164209f, -0.18237633f, 0.05848084f, -0.09878724f, 0.13056053f, -0.30947065f, 0.14615594f, 0.20417349f, 0.09690704f, 0.1386085f, 0.0072860364f, 0.024861714f, -0.29153857f, 0.098363094f, -0.036049265f, 0.14016882f, 0.2320685f, -0.176955f, -0.027030958f, -0.102797605f, -0.13294071f, -0.28609535f, -0.052705318f, -0.15053616f, -0.0087256795f, -0.116626255f, -0.3284756f, 0.0055109826f, -0.009694615f, 0.14688067f, -0.20851134f, 0.17795616f, 0.00017628314f, -0.105186656f, 0.06955316f, -0.22796883f, 0.15034893f, -0.09279041f, 0.14651355f, -0.24856295f, 0.1857243f, -0.08106365f, 0.0012609457f, -0.19308585f, 0.090213925f, -0.061102606f, 0.27418578f, -0.057887483f, -0.1848829f, 0.04715534f, -0.112133175f, -0.023872435f, -0.029059753f, -0.08394387f, 0.0130831f, -0.019860856f, 0.10723802f, 0.024947926f, -0.031219637f, -0.08561294f, -0.22230898f, -0.0029558428f, -0.06044061f, 0.11461461f, 0.08570835f, 0.14246634f, 0.116004355f, -0.102480605f, 0.15712264f, 0.031977016f, -0.037924256f, -0.1634074f, 0.254092f, -0.107544936f, -0.11639801f, -0.13018243f, 0.07505147f, -0.3397479f, -0.028594533f, -0.040605854f, -0.19256957f, 0.12539086f, 0.023031428f, -0.14950682f, -0.012083957f, 0.42602557f, 0.11066037f, 0.1289177f, 0.05893631f, 0.1976298f, 0.018635688f, 0.024127908f, -0.032019652f, -0.058816798f, -0.1118879f, 0.026310686f, -0.039167974f, 0.028002815f, 0.07440581f, 0.19408727f, 0.05746198f, 0.09282821f, -0.45077306f, 0.4308505f, 0.27747095f, -0.009126241f, -0.26439312f, 0.048964053f, -0.011288185f, -0.118360095f, -0.15127799f, -0.19276188f, 0.17402418f, -0.025310844f, -0.13960528f, 0.021385062f, -0.31656432f, 0.19206601f, 0.26628706f, 0.099570155f, 0.07328856f, 0.08164057f, -0.17422879f, -0.06988841f, 0.4029068f, 0.25785777f, -0.05268537f, -0.115724914f, -0.13886417f, 0.108077675f, 0.054030094f, -0.10390518f, -0.046284664f, 0.07399739f, 0.08553891f, 0.036463667f, 0.19753091f, 0.06404117f, 0.0036079746f, -0.19054486f, -0.021931078f, 0.20173463f, 0.25503585f, -0.3309682f, 0.17389193f, -0.10708898f, 0.07169373f, 0.14703366f, 0.022595065f, -0.21735238f, 0.07237804f, -0.17584985f, 0.06349415f, 0.05804331f, -0.12876594f, 0.012512973f, -0.053588994f, 0.020455547f, -0.19794798f, 0.08964927f, 0.14070138f, -0.1549377f, -0.31523913f, -0.22939114f, 0.123844795f, 0.27223086f, 0.047859598f, -0.27525225f, 0.2716673f, -0.21365373f, -0.14149229f, -0.12226513f, -0.2190573f, -0.1820415f, 0.0046743653f, -0.0023485767f, 0.08756735f, -0.1463978f, -0.026959108f, -0.09242074f, -0.21411249f, 0.07064765f, 0.013838699f, 0.30724612f, 0.054866053f, 0.20912325f, 0.12252013f, -0.022019012f, 0.1338595f, 0.037240613f, -0.06275885f, -0.28476533f, -0.10571622f, 0.08518946f, -0.07840649f, -0.07967211f, -0.07266941f, 0.08140416f, 0.010040325f, 0.2571349f, 0.13339318f, 0.024524326f, 0.11715235f, -0.07210037f, -0.0782924f, -0.01483534f, -0.063824326f, 0.033492383f, 0.06841891f, -0.19763958f, -0.080669634f, 0.18058713f, -0.0673672f, -0.025387753f, -0.25436836f, 0.24820127f, 0.01392847f, -0.092084944f, -0.19179384f, 0.016865535f, -0.26907447f, -0.22404978f, 0.12550105f, 0.12028001f, -0.099222235f, 0.1807234f, -0.19183823f, 0.14299679f, 0.06929543f, -0.013009767f, -0.060884554f, -0.16753966f, 0.16354835f, 0.114761375f, -0.028625766f, 0.07876972f, 0.2343202f, 0.06845436f, -0.06841035f, 0.21925211f, -0.19163439f, -0.1364578f, 0.0597787f, -0.057270847f, 0.32278797f, -0.08849325f, -0.1432322f, -0.0016841716f, -0.11075198f, 0.08507601f, -0.16900404f, 0.17933951f, -0.2706311f, -0.051163603f, -0.0064171115f, -0.03577601f, -0.1360447f, -0.017090004f, -0.01788767f, 0.43423462f, 0.31487826f, 0.08984946f, 0.20524836f, 0.155733f, -0.2549216f, 0.16849624f, -0.3742941f, 0.3296416f, -0.13405155f, -0.08046972f, -0.50493574f, -0.0934858f, -0.17538801f, 0.089533016f, -0.026846185f, 0.29087943f, -0.2061303f, -0.12700729f, 0.14375564f, 0.031004017f, -0.1258669f, 0.13668074f, -0.07745023f, -0.18828078f, -0.07587115f, 0.061179638f, 0.04157418f, -0.10212291f, 0.09099856f, 0.018471185f, 0.25060683f, 0.41457853f, 0.07960436f, -0.13253823f, -0.14304858f, -0.09650831f, -0.45529774f, 0.04426225f, -0.20875533f, -0.1099721f, 0.04566922f, 0.31354225f, 0.4068707f, -0.04826597f, -0.21102852f, -0.19121884f, 0.12529665f, -0.015098768f, -0.19549201f, -0.12830718f, -0.020049997f, 0.044782825f, -0.006911764f, 0.22945078f, -0.10773029f, -0.007421897f, -0.32664764f, 0.25663954f, 0.11825782f, -0.13145372f, 0.24326156f, 0.050536823f, 0.06748154f, 0.14406705f, -0.04696456f, 0.024240434f, 0.107389204f, 0.038954563f, 0.007079051f, 0.099587f, 0.14789233f, 0.09236868f, -0.058214802f, -0.03266838f, -0.1604875f, 0.18344773f, 0.060033575f, 0.01027773f, -0.13954115f, -0.15617484f, 0.021251354f, 0.06308005f, -0.05842876f, -0.04007486f, 0.0039982623f, -0.1559916f, -0.022111783f, 0.27678934f, -0.15729372f, -0.14106417f, -0.21144873f, 0.11272907f, -0.08064718f, 0.1317594f, -0.024498602f, -0.2698319f, 0.08229889f, -0.12625143f, 0.1368939f, 0.003455004f, 0.048807237f, 0.03829899f, -0.0937626f, -0.04583761f, -0.13445596f, 0.10864594f, -0.28716153f, -0.0025552015f, -0.0904665f, -0.020999843f, 0.2591089f, 0.12131464f, 0.025138825f, -0.12781811f, -0.007379857f, 0.2744127f, -0.06442562f, 0.01919537f, -0.06666864f, 0.010210617f, 0.019809155f, 0.21260247f, -0.29349267f, 0.04446011f, -0.1449109f, 0.17056327f, -0.09822643f, -0.07918772f, 0.18540446f, -0.18674968f, 0.060696457f, 0.19323857f, 0.37463722f, 0.15554431f, -0.12451839f, 0.11810772f, -0.20492022f, -0.12302484f, 0.06303723f, 0.0721875f, 0.17748463f, -0.15018743f, 0.00055294967f, -0.09545962f, -0.1820535f, -0.20985214f, 0.12729807f, -0.008803509f, 0.06233212f, 0.078907065f, -0.4458931f, 0.11443796f, -0.37358528f, 0.112572476f, -0.15544702f, 0.01963087f, 0.19595096f, -0.0013764852f, -0.12199997f, -0.17111194f, 0.40158916f, 0.034388993f, -0.12772506f, -0.14593832f, 0.25897947f, -0.045330554f, -0.32598147f, -0.006594084f, -0.090772726f, 0.11844245f, -0.3029777f, -0.016815923f, 0.034984197f, -0.17201921f, 0.16515897f, -0.05322517f, 0.027632575f, -0.05698579f, 0.15530787f, -0.009511882f, 0.15283409f, 0.025627205f, -0.04325262f, 0.04470898f, 0.021302404f, 0.3038313f, -0.066904776f, -0.091970734f, -0.2440357f, 0.14901999f, -0.10088464f, 0.15857221f, 0.06340526f, -0.11604547f, 0.024512894f, 0.059651338f, 0.36578432f, 0.12781884f, -0.13423797f, 0.20346685f, 0.009482512f, -0.011920539f, 0.100357346f, -0.06922565f, 0.28274155f, 0.10421727f, 0.045371015f, 0.0005611957f, -0.07898859f, -0.38670686f, 0.002213526f, 0.15280248f, -0.007197188f, -0.22495228f, -0.4314828f, 0.12527359f, -0.30761564f, 0.16240078f, 0.017324215f, -0.031632725f, 0.047380585f, -0.107502334f, 0.0143527035f, -0.030717034f, 0.12856781f, -0.16306588f, 0.08888439f, -0.18410686f, -0.002396204f, -0.039901514f, -0.12448579f, 0.08800649f, -0.016522402f, -0.12499365f, -0.27028832f, -0.06921326f, 0.12693745f, 0.1772033f, 0.10554935f, 0.13005666f, 0.16505177f, -0.23968259f, 0.07970958f, 0.0008147449f, -0.059235226f, -0.35217655f, 0.24638249f, -0.030533578f, 0.29167047f, 0.119313f, -0.16502881f, 0.080212146f, -0.06826077f, -0.14751421f, 0.15312321f, -0.055788808f, 0.10345566f, -0.06444704f, -0.06298565f, -0.1375894f, 0.09220825f, -0.12581713f, 0.015585932f, 0.07069656f, 0.002113153f, -0.066592336f, -0.015376682f, 0.025390424f, 0.060157184f, 0.0059475754f, 0.039659955f, 0.060015973f, -0.24900469f, -0.11632136f, -0.03022932f, -0.08419427f, -0.13890547f, 0.14035031f, -0.06518771f, -0.20108224f, 0.24433835f, 0.09347191f, 0.07941313f, -0.2447118f, 0.084823176f, -0.1956664f, -0.10266355f, 0.19357327f, 0.23240793f, 0.13140975f, -0.10316179f, -0.06032794f, 0.0050379f, 0.053951483f, -0.16367632f, 0.18935587f, -0.06774194f, -0.014802445f, 0.0008350403f, -0.105031446f, -0.20689008f, 0.070149094f, 0.12620725f, -0.08304098f, 0.1543388f, 0.14554998f, 0.11428369f, 0.042889684f, -0.17441566f, 0.072830826f, -0.19796364f, 0.21249002f, -0.049382046f, -0.17389557f, -0.023221547f, 0.14488377f, -0.010594082f, 0.13000193f, 0.19341987f, 0.048369355f, -0.06378005f, -0.007129887f, 0.09935901f, 0.04932831f, 0.19598f, -0.19755247f, 0.10616436f, -0.06200788f, 0.12858467f, -0.06829934f, -0.03757281f, -0.15698285f, -0.26788482f, 0.25586152f, -0.094519936f, -0.16726227f, 0.14396492f, 0.025547234f, 0.029683627f, -0.09472451f, -0.09933552f, 0.01024292f, 0.0074631195f, 0.20749488f, 0.039849564f, -0.05643797f, -0.11336118f, -0.23882702f, 0.019796034f, 0.0016982561f, -0.2728555f, 0.039987396f, 0.24307464f, -0.09748058f, 0.064244464f, -0.12815593f, 0.037642f, -0.10406342f, -0.19502197f, -0.18836367f, 0.28575295f, 0.092043675f, -0.12020435f, -0.08229852f, 0.053434346f, -0.12964205f, -0.3105289f, 0.080906466f, 0.0013863698f, 0.095448256f, -0.03878001f, -0.013719884f, 0.118774116f, -0.21621339f, -0.17585486f, -0.2069127f, 0.20480923f, 0.27916056f, -0.20631543f, 0.182852f, -0.32337618f, 0.15093942f, 0.011894354f, 0.20203742f, -0.17441998f, -0.15002857f, 0.14676127f, -0.115748405f, 0.24217017f, 0.08262262f, -0.22564481f, 0.14139126f, 0.10186977f, 0.32122433f, -0.1433979f, -0.1723597f, -0.17144099f, -0.15625167f, 0.009299754f, 0.15362598f, 0.067775816f, -0.1642106f, 0.056628395f, -0.092956826f, -0.018301625f, -0.041385487f, 0.17021222f, -0.2792117f, -0.0906409f, 0.17141263f, -0.32310146f, 0.2531806f, -0.008412564f, -0.30922636f, 0.2698887f, 0.061553936f, -0.07994713f, -0.17949648f, 0.12671371f, 0.11898851f, 0.21665508f, -0.02929004f, -0.26856086f, -0.13113149f, -0.032722753f, 0.007532282f, 0.2121104f, 0.010455154f, -0.119184114f, 0.07881422f, 0.0014533376f, 0.015436139f, 0.03318639f, 0.1408773f, -0.08103935f, -0.20311195f, 0.04675188f, 0.1576871f, -0.017048651f, 0.15085326f, -0.063475266f, 0.041940875f, 0.36008713f, 0.12937364f, 0.23931058f, -0.33793002f, 0.053289294f, 0.015092221f, -0.03287915f, -0.10770671f, 0.12631804f, -0.075561844f, -0.22845244f, -0.043771002f, 0.3039201f, 0.03342554f, -0.013706769f, -0.009514856f, -0.11564545f, 0.2179875f, 0.011456639f, 0.000618257f, -0.079393014f, -0.046363205f, 0.20494623f, 0.13814677f, 0.026100826f, -0.09089179f, -0.004002544f, -0.12322662f, 0.09117457f, 0.29757383f, -0.102190726f, 0.06137876f, 0.102813385f, 0.013294586f, -0.030382367f, -0.16465658f, -0.086355515f, -0.31799278f, -0.16026703f, -0.1046635f, 0.3108371f, -0.016031096f, -0.10032822f, 0.01486066f, 0.12698932f, -0.086736575f, -0.35792962f, -0.2810554f, -0.20461373f, -0.09966237f, -0.06635781f, -0.042357214f, 0.06817182f, -0.12368499f, 0.19269566f, 0.11523449f, 